=== Run information ===

Scheme:       weka.classifiers.meta.RandomSubSpace -P 0.5 -S 1 -num-slots 1 -I 10 -W weka.classifiers.trees.REPTree -- -M 2 -V 0.001 -N 3 -S 1 -L -1 -I 0.0
Relation:     multidomain_topics
Instances:    8000
Attributes:   51
              topic_1
              topic_2
              topic_3
              topic_4
              topic_5
              topic_6
              topic_7
              topic_8
              topic_9
              topic_10
              topic_11
              topic_12
              topic_13
              topic_14
              topic_15
              topic_16
              topic_17
              topic_18
              topic_19
              topic_20
              topic_21
              topic_22
              topic_23
              topic_24
              topic_25
              topic_26
              topic_27
              topic_28
              topic_29
              topic_30
              topic_31
              topic_32
              topic_33
              topic_34
              topic_35
              topic_36
              topic_37
              topic_38
              topic_39
              topic_40
              topic_41
              topic_42
              topic_43
              topic_44
              topic_45
              topic_46
              topic_47
              topic_48
              topic_49
              topic_50
              class_atr
Test mode:    10-fold cross-validation

=== Classifier model (full training set) ===

All the base classifiers: 

FilteredClassifier using weka.classifiers.trees.REPTree -M 2 -V 0.001 -N 3 -S 937089591 -L -1 -I 0.0 on data filtered through weka.filters.unsupervised.attribute.Remove -V -R 48,16,1,35,45,40,22,9,18,19,42,47,46,8,13,7,43,20,2,38,23,14,27,11,34,51

Filtered Header
@relation 'multidomain_topics-weka.filters.unsupervised.attribute.Remove-V-R48,16,1,35,45,40,22,9,18,19,42,47,46,8,13,7,43,20,2,38,23,14,27,11,34,51'

@attribute topic_48 numeric
@attribute topic_16 numeric
@attribute topic_1 numeric
@attribute topic_35 numeric
@attribute topic_45 numeric
@attribute topic_40 numeric
@attribute topic_22 numeric
@attribute topic_9 numeric
@attribute topic_18 numeric
@attribute topic_19 numeric
@attribute topic_42 numeric
@attribute topic_47 numeric
@attribute topic_46 numeric
@attribute topic_8 numeric
@attribute topic_13 numeric
@attribute topic_7 numeric
@attribute topic_43 numeric
@attribute topic_20 numeric
@attribute topic_2 numeric
@attribute topic_38 numeric
@attribute topic_23 numeric
@attribute topic_14 numeric
@attribute topic_27 numeric
@attribute topic_11 numeric
@attribute topic_34 numeric
@attribute class_atr {negative,positive}

@data


Classifier Model

REPTree
============

topic_18 < 0.09
|   topic_1 < 0
|   |   topic_40 < 0.15
|   |   |   topic_19 < 0.05
|   |   |   |   topic_13 < 0.03
|   |   |   |   |   topic_2 < 0.11
|   |   |   |   |   |   topic_48 < 0.38
|   |   |   |   |   |   |   topic_9 < 0.67
|   |   |   |   |   |   |   |   topic_23 < 0.05
|   |   |   |   |   |   |   |   |   topic_35 < 0.1
|   |   |   |   |   |   |   |   |   |   topic_34 < 0 : negative (7/0) [0/0]
|   |   |   |   |   |   |   |   |   |   topic_34 >= 0
|   |   |   |   |   |   |   |   |   |   |   topic_35 < 0
|   |   |   |   |   |   |   |   |   |   |   |   topic_13 < 0
|   |   |   |   |   |   |   |   |   |   |   |   |   topic_14 < 0 : positive (8/0) [6/2]
|   |   |   |   |   |   |   |   |   |   |   |   |   topic_14 >= 0
|   |   |   |   |   |   |   |   |   |   |   |   |   |   topic_47 < 0 : negative (8/0) [2/0]
|   |   |   |   |   |   |   |   |   |   |   |   |   |   topic_47 >= 0
|   |   |   |   |   |   |   |   |   |   |   |   |   |   |   topic_18 < 0.02
|   |   |   |   |   |   |   |   |   |   |   |   |   |   |   |   topic_18 < 0.02
|   |   |   |   |   |   |   |   |   |   |   |   |   |   |   |   |   topic_8 < 0
|   |   |   |   |   |   |   |   |   |   |   |   |   |   |   |   |   |   topic_34 < 0 : positive (37/9) [20/5]
|   |   |   |   |   |   |   |   |   |   |   |   |   |   |   |   |   |   topic_34 >= 0
|   |   |   |   |   |   |   |   |   |   |   |   |   |   |   |   |   |   |   topic_45 < 0
|   |   |   |   |   |   |   |   |   |   |   |   |   |   |   |   |   |   |   |   topic_16 < 0 : negative (5/0) [1/1]
|   |   |   |   |   |   |   |   |   |   |   |   |   |   |   |   |   |   |   |   topic_16 >= 0
|   |   |   |   |   |   |   |   |   |   |   |   |   |   |   |   |   |   |   |   |   topic_46 < 0
|   |   |   |   |   |   |   |   |   |   |   |   |   |   |   |   |   |   |   |   |   |   topic_22 < 0
|   |   |   |   |   |   |   |   |   |   |   |   |   |   |   |   |   |   |   |   |   |   |   topic_11 < 0
|   |   |   |   |   |   |   |   |   |   |   |   |   |   |   |   |   |   |   |   |   |   |   |   topic_42 < 0
|   |   |   |   |   |   |   |   |   |   |   |   |   |   |   |   |   |   |   |   |   |   |   |   |   topic_48 < 0 : positive (4/1) [2/0]
|   |   |   |   |   |   |   |   |   |   |   |   |   |   |   |   |   |   |   |   |   |   |   |   |   topic_48 >= 0 : negative (4/1) [1/0]
|   |   |   |   |   |   |   |   |   |   |   |   |   |   |   |   |   |   |   |   |   |   |   |   topic_42 >= 0 : positive (8/0) [5/3]
|   |   |   |   |   |   |   |   |   |   |   |   |   |   |   |   |   |   |   |   |   |   |   topic_11 >= 0
|   |   |   |   |   |   |   |   |   |   |   |   |   |   |   |   |   |   |   |   |   |   |   |   topic_38 < 0 : negative (6/0) [3/2]
|   |   |   |   |   |   |   |   |   |   |   |   |   |   |   |   |   |   |   |   |   |   |   |   topic_38 >= 0
|   |   |   |   |   |   |   |   |   |   |   |   |   |   |   |   |   |   |   |   |   |   |   |   |   topic_34 < 0 : positive (4/0) [0/0]
|   |   |   |   |   |   |   |   |   |   |   |   |   |   |   |   |   |   |   |   |   |   |   |   |   topic_34 >= 0
|   |   |   |   |   |   |   |   |   |   |   |   |   |   |   |   |   |   |   |   |   |   |   |   |   |   topic_7 < 0 : negative (6/0) [3/3]
|   |   |   |   |   |   |   |   |   |   |   |   |   |   |   |   |   |   |   |   |   |   |   |   |   |   topic_7 >= 0
|   |   |   |   |   |   |   |   |   |   |   |   |   |   |   |   |   |   |   |   |   |   |   |   |   |   |   topic_27 < 0 : positive (5/0) [3/0]
|   |   |   |   |   |   |   |   |   |   |   |   |   |   |   |   |   |   |   |   |   |   |   |   |   |   |   topic_27 >= 0
|   |   |   |   |   |   |   |   |   |   |   |   |   |   |   |   |   |   |   |   |   |   |   |   |   |   |   |   topic_9 < 0
|   |   |   |   |   |   |   |   |   |   |   |   |   |   |   |   |   |   |   |   |   |   |   |   |   |   |   |   |   topic_42 < 0 : negative (6/1) [8/3]
|   |   |   |   |   |   |   |   |   |   |   |   |   |   |   |   |   |   |   |   |   |   |   |   |   |   |   |   |   topic_42 >= 0
|   |   |   |   |   |   |   |   |   |   |   |   |   |   |   |   |   |   |   |   |   |   |   |   |   |   |   |   |   |   topic_47 < 0 : positive (7/0) [3/1]
|   |   |   |   |   |   |   |   |   |   |   |   |   |   |   |   |   |   |   |   |   |   |   |   |   |   |   |   |   |   topic_47 >= 0 : negative (3/1) [1/0]
|   |   |   |   |   |   |   |   |   |   |   |   |   |   |   |   |   |   |   |   |   |   |   |   |   |   |   |   topic_9 >= 0 : negative (8/1) [3/1]
|   |   |   |   |   |   |   |   |   |   |   |   |   |   |   |   |   |   |   |   |   |   topic_22 >= 0 : negative (9/0) [9/3]
|   |   |   |   |   |   |   |   |   |   |   |   |   |   |   |   |   |   |   |   |   topic_46 >= 0 : positive (41/13) [21/2]
|   |   |   |   |   |   |   |   |   |   |   |   |   |   |   |   |   |   |   topic_45 >= 0 : negative (6/0) [1/0]
|   |   |   |   |   |   |   |   |   |   |   |   |   |   |   |   |   topic_8 >= 0 : positive (31/6) [15/6]
|   |   |   |   |   |   |   |   |   |   |   |   |   |   |   |   topic_18 >= 0.02 : negative (4/0) [3/1]
|   |   |   |   |   |   |   |   |   |   |   |   |   |   |   topic_18 >= 0.02 : positive (14/1) [5/2]
|   |   |   |   |   |   |   |   |   |   |   |   topic_13 >= 0 : positive (11/0) [5/2]
|   |   |   |   |   |   |   |   |   |   |   topic_35 >= 0
|   |   |   |   |   |   |   |   |   |   |   |   topic_38 < 0
|   |   |   |   |   |   |   |   |   |   |   |   |   topic_45 < 0
|   |   |   |   |   |   |   |   |   |   |   |   |   |   topic_11 < 0 : negative (6/0) [2/0]
|   |   |   |   |   |   |   |   |   |   |   |   |   |   topic_11 >= 0
|   |   |   |   |   |   |   |   |   |   |   |   |   |   |   topic_16 < 0 : positive (3/0) [1/0]
|   |   |   |   |   |   |   |   |   |   |   |   |   |   |   topic_16 >= 0
|   |   |   |   |   |   |   |   |   |   |   |   |   |   |   |   topic_47 < 0.26
|   |   |   |   |   |   |   |   |   |   |   |   |   |   |   |   |   topic_47 < 0
|   |   |   |   |   |   |   |   |   |   |   |   |   |   |   |   |   |   topic_27 < 0.07 : positive (27/13) [14/4]
|   |   |   |   |   |   |   |   |   |   |   |   |   |   |   |   |   |   topic_27 >= 0.07 : negative (6/0) [4/3]
|   |   |   |   |   |   |   |   |   |   |   |   |   |   |   |   |   topic_47 >= 0 : negative (12/1) [6/5]
|   |   |   |   |   |   |   |   |   |   |   |   |   |   |   |   topic_47 >= 0.26 : positive (10/3) [1/0]
|   |   |   |   |   |   |   |   |   |   |   |   |   topic_45 >= 0 : negative (11/0) [5/2]
|   |   |   |   |   |   |   |   |   |   |   |   topic_38 >= 0
|   |   |   |   |   |   |   |   |   |   |   |   |   topic_45 < 0
|   |   |   |   |   |   |   |   |   |   |   |   |   |   topic_16 < 0 : positive (22/5) [13/7]
|   |   |   |   |   |   |   |   |   |   |   |   |   |   topic_16 >= 0
|   |   |   |   |   |   |   |   |   |   |   |   |   |   |   topic_47 < 0.43
|   |   |   |   |   |   |   |   |   |   |   |   |   |   |   |   topic_47 < 0.4
|   |   |   |   |   |   |   |   |   |   |   |   |   |   |   |   |   topic_46 < 0 : negative (5/0) [9/4]
|   |   |   |   |   |   |   |   |   |   |   |   |   |   |   |   |   topic_46 >= 0
|   |   |   |   |   |   |   |   |   |   |   |   |   |   |   |   |   |   topic_16 < 0.01
|   |   |   |   |   |   |   |   |   |   |   |   |   |   |   |   |   |   |   topic_27 < 0.29
|   |   |   |   |   |   |   |   |   |   |   |   |   |   |   |   |   |   |   |   topic_46 < 0.3
|   |   |   |   |   |   |   |   |   |   |   |   |   |   |   |   |   |   |   |   |   topic_46 < 0.23
|   |   |   |   |   |   |   |   |   |   |   |   |   |   |   |   |   |   |   |   |   |   topic_8 < 0
|   |   |   |   |   |   |   |   |   |   |   |   |   |   |   |   |   |   |   |   |   |   |   topic_40 < 0.04
|   |   |   |   |   |   |   |   |   |   |   |   |   |   |   |   |   |   |   |   |   |   |   |   topic_40 < 0.02
|   |   |   |   |   |   |   |   |   |   |   |   |   |   |   |   |   |   |   |   |   |   |   |   |   topic_43 < 0
|   |   |   |   |   |   |   |   |   |   |   |   |   |   |   |   |   |   |   |   |   |   |   |   |   |   topic_48 < 0.32
|   |   |   |   |   |   |   |   |   |   |   |   |   |   |   |   |   |   |   |   |   |   |   |   |   |   |   topic_2 < 0
|   |   |   |   |   |   |   |   |   |   |   |   |   |   |   |   |   |   |   |   |   |   |   |   |   |   |   |   topic_20 < 0.68
|   |   |   |   |   |   |   |   |   |   |   |   |   |   |   |   |   |   |   |   |   |   |   |   |   |   |   |   |   topic_22 < 0.42
|   |   |   |   |   |   |   |   |   |   |   |   |   |   |   |   |   |   |   |   |   |   |   |   |   |   |   |   |   |   topic_22 < 0.13
|   |   |   |   |   |   |   |   |   |   |   |   |   |   |   |   |   |   |   |   |   |   |   |   |   |   |   |   |   |   |   topic_22 < 0.06
|   |   |   |   |   |   |   |   |   |   |   |   |   |   |   |   |   |   |   |   |   |   |   |   |   |   |   |   |   |   |   |   topic_11 < 0.5
|   |   |   |   |   |   |   |   |   |   |   |   |   |   |   |   |   |   |   |   |   |   |   |   |   |   |   |   |   |   |   |   |   topic_40 < 0
|   |   |   |   |   |   |   |   |   |   |   |   |   |   |   |   |   |   |   |   |   |   |   |   |   |   |   |   |   |   |   |   |   |   topic_48 < 0.28
|   |   |   |   |   |   |   |   |   |   |   |   |   |   |   |   |   |   |   |   |   |   |   |   |   |   |   |   |   |   |   |   |   |   |   topic_9 < 0
|   |   |   |   |   |   |   |   |   |   |   |   |   |   |   |   |   |   |   |   |   |   |   |   |   |   |   |   |   |   |   |   |   |   |   |   topic_20 < 0
|   |   |   |   |   |   |   |   |   |   |   |   |   |   |   |   |   |   |   |   |   |   |   |   |   |   |   |   |   |   |   |   |   |   |   |   |   topic_38 < 0
|   |   |   |   |   |   |   |   |   |   |   |   |   |   |   |   |   |   |   |   |   |   |   |   |   |   |   |   |   |   |   |   |   |   |   |   |   |   topic_35 < 0
|   |   |   |   |   |   |   |   |   |   |   |   |   |   |   |   |   |   |   |   |   |   |   |   |   |   |   |   |   |   |   |   |   |   |   |   |   |   |   topic_11 < 0 : positive (10/3) [6/2]
|   |   |   |   |   |   |   |   |   |   |   |   |   |   |   |   |   |   |   |   |   |   |   |   |   |   |   |   |   |   |   |   |   |   |   |   |   |   |   topic_11 >= 0
|   |   |   |   |   |   |   |   |   |   |   |   |   |   |   |   |   |   |   |   |   |   |   |   |   |   |   |   |   |   |   |   |   |   |   |   |   |   |   |   topic_11 < 0 : negative (4/0) [4/1]
|   |   |   |   |   |   |   |   |   |   |   |   |   |   |   |   |   |   |   |   |   |   |   |   |   |   |   |   |   |   |   |   |   |   |   |   |   |   |   |   topic_11 >= 0
|   |   |   |   |   |   |   |   |   |   |   |   |   |   |   |   |   |   |   |   |   |   |   |   |   |   |   |   |   |   |   |   |   |   |   |   |   |   |   |   |   topic_27 < 0 : positive (2/0) [2/0]
|   |   |   |   |   |   |   |   |   |   |   |   |   |   |   |   |   |   |   |   |   |   |   |   |   |   |   |   |   |   |   |   |   |   |   |   |   |   |   |   |   topic_27 >= 0 : negative (5/1) [1/0]
|   |   |   |   |   |   |   |   |   |   |   |   |   |   |   |   |   |   |   |   |   |   |   |   |   |   |   |   |   |   |   |   |   |   |   |   |   |   topic_35 >= 0 : positive (7/0) [3/1]
|   |   |   |   |   |   |   |   |   |   |   |   |   |   |   |   |   |   |   |   |   |   |   |   |   |   |   |   |   |   |   |   |   |   |   |   |   topic_38 >= 0 : negative (27/6) [9/2]
|   |   |   |   |   |   |   |   |   |   |   |   |   |   |   |   |   |   |   |   |   |   |   |   |   |   |   |   |   |   |   |   |   |   |   |   topic_20 >= 0 : positive (33/7) [17/3]
|   |   |   |   |   |   |   |   |   |   |   |   |   |   |   |   |   |   |   |   |   |   |   |   |   |   |   |   |   |   |   |   |   |   |   topic_9 >= 0
|   |   |   |   |   |   |   |   |   |   |   |   |   |   |   |   |   |   |   |   |   |   |   |   |   |   |   |   |   |   |   |   |   |   |   |   topic_34 < 0.01
|   |   |   |   |   |   |   |   |   |   |   |   |   |   |   |   |   |   |   |   |   |   |   |   |   |   |   |   |   |   |   |   |   |   |   |   |   topic_11 < 0 : negative (5/0) [4/2]
|   |   |   |   |   |   |   |   |   |   |   |   |   |   |   |   |   |   |   |   |   |   |   |   |   |   |   |   |   |   |   |   |   |   |   |   |   topic_11 >= 0
|   |   |   |   |   |   |   |   |   |   |   |   |   |   |   |   |   |   |   |   |   |   |   |   |   |   |   |   |   |   |   |   |   |   |   |   |   |   topic_23 < 0 : positive (5/0) [2/0]
|   |   |   |   |   |   |   |   |   |   |   |   |   |   |   |   |   |   |   |   |   |   |   |   |   |   |   |   |   |   |   |   |   |   |   |   |   |   topic_23 >= 0
|   |   |   |   |   |   |   |   |   |   |   |   |   |   |   |   |   |   |   |   |   |   |   |   |   |   |   |   |   |   |   |   |   |   |   |   |   |   |   topic_48 < 0 : negative (9/0) [2/1]
|   |   |   |   |   |   |   |   |   |   |   |   |   |   |   |   |   |   |   |   |   |   |   |   |   |   |   |   |   |   |   |   |   |   |   |   |   |   |   topic_48 >= 0
|   |   |   |   |   |   |   |   |   |   |   |   |   |   |   |   |   |   |   |   |   |   |   |   |   |   |   |   |   |   |   |   |   |   |   |   |   |   |   |   topic_9 < 0.43
|   |   |   |   |   |   |   |   |   |   |   |   |   |   |   |   |   |   |   |   |   |   |   |   |   |   |   |   |   |   |   |   |   |   |   |   |   |   |   |   |   topic_27 < 0.26
|   |   |   |   |   |   |   |   |   |   |   |   |   |   |   |   |   |   |   |   |   |   |   |   |   |   |   |   |   |   |   |   |   |   |   |   |   |   |   |   |   |   topic_27 < 0.13
|   |   |   |   |   |   |   |   |   |   |   |   |   |   |   |   |   |   |   |   |   |   |   |   |   |   |   |   |   |   |   |   |   |   |   |   |   |   |   |   |   |   |   topic_27 < 0.09
|   |   |   |   |   |   |   |   |   |   |   |   |   |   |   |   |   |   |   |   |   |   |   |   |   |   |   |   |   |   |   |   |   |   |   |   |   |   |   |   |   |   |   |   topic_18 < 0.05
|   |   |   |   |   |   |   |   |   |   |   |   |   |   |   |   |   |   |   |   |   |   |   |   |   |   |   |   |   |   |   |   |   |   |   |   |   |   |   |   |   |   |   |   |   topic_14 < 0.43
|   |   |   |   |   |   |   |   |   |   |   |   |   |   |   |   |   |   |   |   |   |   |   |   |   |   |   |   |   |   |   |   |   |   |   |   |   |   |   |   |   |   |   |   |   |   topic_48 < 0
|   |   |   |   |   |   |   |   |   |   |   |   |   |   |   |   |   |   |   |   |   |   |   |   |   |   |   |   |   |   |   |   |   |   |   |   |   |   |   |   |   |   |   |   |   |   |   topic_14 < 0
|   |   |   |   |   |   |   |   |   |   |   |   |   |   |   |   |   |   |   |   |   |   |   |   |   |   |   |   |   |   |   |   |   |   |   |   |   |   |   |   |   |   |   |   |   |   |   |   topic_7 < 0.05
|   |   |   |   |   |   |   |   |   |   |   |   |   |   |   |   |   |   |   |   |   |   |   |   |   |   |   |   |   |   |   |   |   |   |   |   |   |   |   |   |   |   |   |   |   |   |   |   |   topic_9 < 0
|   |   |   |   |   |   |   |   |   |   |   |   |   |   |   |   |   |   |   |   |   |   |   |   |   |   |   |   |   |   |   |   |   |   |   |   |   |   |   |   |   |   |   |   |   |   |   |   |   |   topic_20 < 0
|   |   |   |   |   |   |   |   |   |   |   |   |   |   |   |   |   |   |   |   |   |   |   |   |   |   |   |   |   |   |   |   |   |   |   |   |   |   |   |   |   |   |   |   |   |   |   |   |   |   |   topic_38 < 0 : negative (9/2) [4/2]
|   |   |   |   |   |   |   |   |   |   |   |   |   |   |   |   |   |   |   |   |   |   |   |   |   |   |   |   |   |   |   |   |   |   |   |   |   |   |   |   |   |   |   |   |   |   |   |   |   |   |   topic_38 >= 0
|   |   |   |   |   |   |   |   |   |   |   |   |   |   |   |   |   |   |   |   |   |   |   |   |   |   |   |   |   |   |   |   |   |   |   |   |   |   |   |   |   |   |   |   |   |   |   |   |   |   |   |   topic_48 < 0 : positive (5/0) [1/0]
|   |   |   |   |   |   |   |   |   |   |   |   |   |   |   |   |   |   |   |   |   |   |   |   |   |   |   |   |   |   |   |   |   |   |   |   |   |   |   |   |   |   |   |   |   |   |   |   |   |   |   |   topic_48 >= 0 : negative (8/3) [5/2]
|   |   |   |   |   |   |   |   |   |   |   |   |   |   |   |   |   |   |   |   |   |   |   |   |   |   |   |   |   |   |   |   |   |   |   |   |   |   |   |   |   |   |   |   |   |   |   |   |   |   topic_20 >= 0 : negative (6/0) [5/2]
|   |   |   |   |   |   |   |   |   |   |   |   |   |   |   |   |   |   |   |   |   |   |   |   |   |   |   |   |   |   |   |   |   |   |   |   |   |   |   |   |   |   |   |   |   |   |   |   |   topic_9 >= 0
|   |   |   |   |   |   |   |   |   |   |   |   |   |   |   |   |   |   |   |   |   |   |   |   |   |   |   |   |   |   |   |   |   |   |   |   |   |   |   |   |   |   |   |   |   |   |   |   |   |   topic_42 < 0 : positive (11/1) [9/3]
|   |   |   |   |   |   |   |   |   |   |   |   |   |   |   |   |   |   |   |   |   |   |   |   |   |   |   |   |   |   |   |   |   |   |   |   |   |   |   |   |   |   |   |   |   |   |   |   |   |   topic_42 >= 0
|   |   |   |   |   |   |   |   |   |   |   |   |   |   |   |   |   |   |   |   |   |   |   |   |   |   |   |   |   |   |   |   |   |   |   |   |   |   |   |   |   |   |   |   |   |   |   |   |   |   |   topic_22 < 0 : negative (3/0) [4/0]
|   |   |   |   |   |   |   |   |   |   |   |   |   |   |   |   |   |   |   |   |   |   |   |   |   |   |   |   |   |   |   |   |   |   |   |   |   |   |   |   |   |   |   |   |   |   |   |   |   |   |   topic_22 >= 0 : positive (36/14) [25/10]
|   |   |   |   |   |   |   |   |   |   |   |   |   |   |   |   |   |   |   |   |   |   |   |   |   |   |   |   |   |   |   |   |   |   |   |   |   |   |   |   |   |   |   |   |   |   |   |   topic_7 >= 0.05 : negative (7/1) [3/1]
|   |   |   |   |   |   |   |   |   |   |   |   |   |   |   |   |   |   |   |   |   |   |   |   |   |   |   |   |   |   |   |   |   |   |   |   |   |   |   |   |   |   |   |   |   |   |   topic_14 >= 0 : positive (8/1) [0/0]
|   |   |   |   |   |   |   |   |   |   |   |   |   |   |   |   |   |   |   |   |   |   |   |   |   |   |   |   |   |   |   |   |   |   |   |   |   |   |   |   |   |   |   |   |   |   topic_48 >= 0
|   |   |   |   |   |   |   |   |   |   |   |   |   |   |   |   |   |   |   |   |   |   |   |   |   |   |   |   |   |   |   |   |   |   |   |   |   |   |   |   |   |   |   |   |   |   |   topic_16 < 0 : negative (10/1) [7/6]
|   |   |   |   |   |   |   |   |   |   |   |   |   |   |   |   |   |   |   |   |   |   |   |   |   |   |   |   |   |   |   |   |   |   |   |   |   |   |   |   |   |   |   |   |   |   |   topic_16 >= 0 : positive (3/1) [2/0]
|   |   |   |   |   |   |   |   |   |   |   |   |   |   |   |   |   |   |   |   |   |   |   |   |   |   |   |   |   |   |   |   |   |   |   |   |   |   |   |   |   |   |   |   |   topic_14 >= 0.43 : negative (3/0) [0/0]
|   |   |   |   |   |   |   |   |   |   |   |   |   |   |   |   |   |   |   |   |   |   |   |   |   |   |   |   |   |   |   |   |   |   |   |   |   |   |   |   |   |   |   |   topic_18 >= 0.05 : negative (3/0) [2/2]
|   |   |   |   |   |   |   |   |   |   |   |   |   |   |   |   |   |   |   |   |   |   |   |   |   |   |   |   |   |   |   |   |   |   |   |   |   |   |   |   |   |   |   topic_27 >= 0.09 : positive (4/0) [3/2]
|   |   |   |   |   |   |   |   |   |   |   |   |   |   |   |   |   |   |   |   |   |   |   |   |   |   |   |   |   |   |   |   |   |   |   |   |   |   |   |   |   |   topic_27 >= 0.13
|   |   |   |   |   |   |   |   |   |   |   |   |   |   |   |   |   |   |   |   |   |   |   |   |   |   |   |   |   |   |   |   |   |   |   |   |   |   |   |   |   |   |   topic_42 < 0 : positive (4/1) [2/0]
|   |   |   |   |   |   |   |   |   |   |   |   |   |   |   |   |   |   |   |   |   |   |   |   |   |   |   |   |   |   |   |   |   |   |   |   |   |   |   |   |   |   |   topic_42 >= 0 : negative (14/0) [2/2]
|   |   |   |   |   |   |   |   |   |   |   |   |   |   |   |   |   |   |   |   |   |   |   |   |   |   |   |   |   |   |   |   |   |   |   |   |   |   |   |   |   topic_27 >= 0.26 : positive (3/0) [3/2]
|   |   |   |   |   |   |   |   |   |   |   |   |   |   |   |   |   |   |   |   |   |   |   |   |   |   |   |   |   |   |   |   |   |   |   |   |   |   |   |   topic_9 >= 0.43 : positive (3/0) [0/0]
|   |   |   |   |   |   |   |   |   |   |   |   |   |   |   |   |   |   |   |   |   |   |   |   |   |   |   |   |   |   |   |   |   |   |   |   topic_34 >= 0.01 : negative (8/0) [2/0]
|   |   |   |   |   |   |   |   |   |   |   |   |   |   |   |   |   |   |   |   |   |   |   |   |   |   |   |   |   |   |   |   |   |   topic_48 >= 0.28 : negative (3/0) [0/0]
|   |   |   |   |   |   |   |   |   |   |   |   |   |   |   |   |   |   |   |   |   |   |   |   |   |   |   |   |   |   |   |   |   topic_40 >= 0 : negative (4/0) [3/1]
|   |   |   |   |   |   |   |   |   |   |   |   |   |   |   |   |   |   |   |   |   |   |   |   |   |   |   |   |   |   |   |   topic_11 >= 0.5 : positive (3/0) [2/1]
|   |   |   |   |   |   |   |   |   |   |   |   |   |   |   |   |   |   |   |   |   |   |   |   |   |   |   |   |   |   |   topic_22 >= 0.06 : positive (3/0) [0/0]
|   |   |   |   |   |   |   |   |   |   |   |   |   |   |   |   |   |   |   |   |   |   |   |   |   |   |   |   |   |   topic_22 >= 0.13 : negative (4/0) [1/0]
|   |   |   |   |   |   |   |   |   |   |   |   |   |   |   |   |   |   |   |   |   |   |   |   |   |   |   |   |   topic_22 >= 0.42 : positive (7/1) [1/0]
|   |   |   |   |   |   |   |   |   |   |   |   |   |   |   |   |   |   |   |   |   |   |   |   |   |   |   |   topic_20 >= 0.68 : negative (5/0) [1/0]
|   |   |   |   |   |   |   |   |   |   |   |   |   |   |   |   |   |   |   |   |   |   |   |   |   |   |   topic_2 >= 0 : negative (7/0) [7/1]
|   |   |   |   |   |   |   |   |   |   |   |   |   |   |   |   |   |   |   |   |   |   |   |   |   |   topic_48 >= 0.32 : positive (6/0) [1/0]
|   |   |   |   |   |   |   |   |   |   |   |   |   |   |   |   |   |   |   |   |   |   |   |   |   topic_43 >= 0
|   |   |   |   |   |   |   |   |   |   |   |   |   |   |   |   |   |   |   |   |   |   |   |   |   |   topic_7 < 0
|   |   |   |   |   |   |   |   |   |   |   |   |   |   |   |   |   |   |   |   |   |   |   |   |   |   |   topic_22 < 0.02
|   |   |   |   |   |   |   |   |   |   |   |   |   |   |   |   |   |   |   |   |   |   |   |   |   |   |   |   topic_18 < 0.07
|   |   |   |   |   |   |   |   |   |   |   |   |   |   |   |   |   |   |   |   |   |   |   |   |   |   |   |   |   topic_14 < 0
|   |   |   |   |   |   |   |   |   |   |   |   |   |   |   |   |   |   |   |   |   |   |   |   |   |   |   |   |   |   topic_47 < 0.04
|   |   |   |   |   |   |   |   |   |   |   |   |   |   |   |   |   |   |   |   |   |   |   |   |   |   |   |   |   |   |   topic_46 < 0.19
|   |   |   |   |   |   |   |   |   |   |   |   |   |   |   |   |   |   |   |   |   |   |   |   |   |   |   |   |   |   |   |   topic_46 < 0.04
|   |   |   |   |   |   |   |   |   |   |   |   |   |   |   |   |   |   |   |   |   |   |   |   |   |   |   |   |   |   |   |   |   topic_46 < 0.03
|   |   |   |   |   |   |   |   |   |   |   |   |   |   |   |   |   |   |   |   |   |   |   |   |   |   |   |   |   |   |   |   |   |   topic_9 < 0.09
|   |   |   |   |   |   |   |   |   |   |   |   |   |   |   |   |   |   |   |   |   |   |   |   |   |   |   |   |   |   |   |   |   |   |   topic_38 < 0.08 : positive (49/18) [21/7]
|   |   |   |   |   |   |   |   |   |   |   |   |   |   |   |   |   |   |   |   |   |   |   |   |   |   |   |   |   |   |   |   |   |   |   topic_38 >= 0.08
|   |   |   |   |   |   |   |   |   |   |   |   |   |   |   |   |   |   |   |   |   |   |   |   |   |   |   |   |   |   |   |   |   |   |   |   topic_48 < 0 : positive (11/0) [2/0]
|   |   |   |   |   |   |   |   |   |   |   |   |   |   |   |   |   |   |   |   |   |   |   |   |   |   |   |   |   |   |   |   |   |   |   |   topic_48 >= 0 : negative (4/2) [5/2]
|   |   |   |   |   |   |   |   |   |   |   |   |   |   |   |   |   |   |   |   |   |   |   |   |   |   |   |   |   |   |   |   |   |   topic_9 >= 0.09 : positive (4/0) [3/1]
|   |   |   |   |   |   |   |   |   |   |   |   |   |   |   |   |   |   |   |   |   |   |   |   |   |   |   |   |   |   |   |   |   topic_46 >= 0.03 : negative (2/0) [3/0]
|   |   |   |   |   |   |   |   |   |   |   |   |   |   |   |   |   |   |   |   |   |   |   |   |   |   |   |   |   |   |   |   topic_46 >= 0.04 : positive (6/0) [4/0]
|   |   |   |   |   |   |   |   |   |   |   |   |   |   |   |   |   |   |   |   |   |   |   |   |   |   |   |   |   |   |   topic_46 >= 0.19 : negative (2/0) [0/0]
|   |   |   |   |   |   |   |   |   |   |   |   |   |   |   |   |   |   |   |   |   |   |   |   |   |   |   |   |   |   topic_47 >= 0.04 : negative (2/0) [0/0]
|   |   |   |   |   |   |   |   |   |   |   |   |   |   |   |   |   |   |   |   |   |   |   |   |   |   |   |   |   topic_14 >= 0 : positive (8/0) [2/1]
|   |   |   |   |   |   |   |   |   |   |   |   |   |   |   |   |   |   |   |   |   |   |   |   |   |   |   |   topic_18 >= 0.07 : negative (3/0) [0/0]
|   |   |   |   |   |   |   |   |   |   |   |   |   |   |   |   |   |   |   |   |   |   |   |   |   |   |   topic_22 >= 0.02 : positive (7/0) [1/1]
|   |   |   |   |   |   |   |   |   |   |   |   |   |   |   |   |   |   |   |   |   |   |   |   |   |   topic_7 >= 0
|   |   |   |   |   |   |   |   |   |   |   |   |   |   |   |   |   |   |   |   |   |   |   |   |   |   |   topic_38 < 0.62
|   |   |   |   |   |   |   |   |   |   |   |   |   |   |   |   |   |   |   |   |   |   |   |   |   |   |   |   topic_47 < 0 : negative (319/155) [170/76]
|   |   |   |   |   |   |   |   |   |   |   |   |   |   |   |   |   |   |   |   |   |   |   |   |   |   |   |   topic_47 >= 0 : positive (47/15) [27/11]
|   |   |   |   |   |   |   |   |   |   |   |   |   |   |   |   |   |   |   |   |   |   |   |   |   |   |   topic_38 >= 0.62 : negative (5/0) [4/3]
|   |   |   |   |   |   |   |   |   |   |   |   |   |   |   |   |   |   |   |   |   |   |   |   topic_40 >= 0.02 : positive (7/0) [3/1]
|   |   |   |   |   |   |   |   |   |   |   |   |   |   |   |   |   |   |   |   |   |   |   topic_40 >= 0.04
|   |   |   |   |   |   |   |   |   |   |   |   |   |   |   |   |   |   |   |   |   |   |   |   topic_27 < 0
|   |   |   |   |   |   |   |   |   |   |   |   |   |   |   |   |   |   |   |   |   |   |   |   |   topic_42 < 0 : positive (3/0) [0/0]
|   |   |   |   |   |   |   |   |   |   |   |   |   |   |   |   |   |   |   |   |   |   |   |   |   topic_42 >= 0
|   |   |   |   |   |   |   |   |   |   |   |   |   |   |   |   |   |   |   |   |   |   |   |   |   |   topic_46 < 0 : negative (18/3) [12/4]
|   |   |   |   |   |   |   |   |   |   |   |   |   |   |   |   |   |   |   |   |   |   |   |   |   |   topic_46 >= 0
|   |   |   |   |   |   |   |   |   |   |   |   |   |   |   |   |   |   |   |   |   |   |   |   |   |   |   topic_11 < 0.05
|   |   |   |   |   |   |   |   |   |   |   |   |   |   |   |   |   |   |   |   |   |   |   |   |   |   |   |   topic_40 < 0.09
|   |   |   |   |   |   |   |   |   |   |   |   |   |   |   |   |   |   |   |   |   |   |   |   |   |   |   |   |   topic_40 < 0.06 : positive (5/1) [4/1]
|   |   |   |   |   |   |   |   |   |   |   |   |   |   |   |   |   |   |   |   |   |   |   |   |   |   |   |   |   topic_40 >= 0.06 : negative (5/1) [5/1]
|   |   |   |   |   |   |   |   |   |   |   |   |   |   |   |   |   |   |   |   |   |   |   |   |   |   |   |   topic_40 >= 0.09 : positive (7/0) [2/1]
|   |   |   |   |   |   |   |   |   |   |   |   |   |   |   |   |   |   |   |   |   |   |   |   |   |   |   topic_11 >= 0.05 : negative (3/0) [2/0]
|   |   |   |   |   |   |   |   |   |   |   |   |   |   |   |   |   |   |   |   |   |   |   |   topic_27 >= 0 : negative (8/0) [0/0]
|   |   |   |   |   |   |   |   |   |   |   |   |   |   |   |   |   |   |   |   |   |   topic_8 >= 0
|   |   |   |   |   |   |   |   |   |   |   |   |   |   |   |   |   |   |   |   |   |   |   topic_11 < 0 : negative (6/0) [3/1]
|   |   |   |   |   |   |   |   |   |   |   |   |   |   |   |   |   |   |   |   |   |   |   topic_11 >= 0
|   |   |   |   |   |   |   |   |   |   |   |   |   |   |   |   |   |   |   |   |   |   |   |   topic_9 < 0 : positive (6/0) [4/2]
|   |   |   |   |   |   |   |   |   |   |   |   |   |   |   |   |   |   |   |   |   |   |   |   topic_9 >= 0
|   |   |   |   |   |   |   |   |   |   |   |   |   |   |   |   |   |   |   |   |   |   |   |   |   topic_20 < 0.26
|   |   |   |   |   |   |   |   |   |   |   |   |   |   |   |   |   |   |   |   |   |   |   |   |   |   topic_43 < 0.42
|   |   |   |   |   |   |   |   |   |   |   |   |   |   |   |   |   |   |   |   |   |   |   |   |   |   |   topic_43 < 0.25
|   |   |   |   |   |   |   |   |   |   |   |   |   |   |   |   |   |   |   |   |   |   |   |   |   |   |   |   topic_43 < 0.11
|   |   |   |   |   |   |   |   |   |   |   |   |   |   |   |   |   |   |   |   |   |   |   |   |   |   |   |   |   topic_11 < 0 : negative (3/0) [1/0]
|   |   |   |   |   |   |   |   |   |   |   |   |   |   |   |   |   |   |   |   |   |   |   |   |   |   |   |   |   topic_11 >= 0
|   |   |   |   |   |   |   |   |   |   |   |   |   |   |   |   |   |   |   |   |   |   |   |   |   |   |   |   |   |   topic_20 < 0 : positive (3/0) [2/1]
|   |   |   |   |   |   |   |   |   |   |   |   |   |   |   |   |   |   |   |   |   |   |   |   |   |   |   |   |   |   topic_20 >= 0
|   |   |   |   |   |   |   |   |   |   |   |   |   |   |   |   |   |   |   |   |   |   |   |   |   |   |   |   |   |   |   topic_48 < 0 : negative (3/0) [1/0]
|   |   |   |   |   |   |   |   |   |   |   |   |   |   |   |   |   |   |   |   |   |   |   |   |   |   |   |   |   |   |   topic_48 >= 0
|   |   |   |   |   |   |   |   |   |   |   |   |   |   |   |   |   |   |   |   |   |   |   |   |   |   |   |   |   |   |   |   topic_48 < 0 : positive (2/0) [1/1]
|   |   |   |   |   |   |   |   |   |   |   |   |   |   |   |   |   |   |   |   |   |   |   |   |   |   |   |   |   |   |   |   topic_48 >= 0
|   |   |   |   |   |   |   |   |   |   |   |   |   |   |   |   |   |   |   |   |   |   |   |   |   |   |   |   |   |   |   |   |   topic_43 < 0 : negative (5/0) [1/0]
|   |   |   |   |   |   |   |   |   |   |   |   |   |   |   |   |   |   |   |   |   |   |   |   |   |   |   |   |   |   |   |   |   topic_43 >= 0
|   |   |   |   |   |   |   |   |   |   |   |   |   |   |   |   |   |   |   |   |   |   |   |   |   |   |   |   |   |   |   |   |   |   topic_48 < 0 : positive (3/0) [4/2]
|   |   |   |   |   |   |   |   |   |   |   |   |   |   |   |   |   |   |   |   |   |   |   |   |   |   |   |   |   |   |   |   |   |   topic_48 >= 0
|   |   |   |   |   |   |   |   |   |   |   |   |   |   |   |   |   |   |   |   |   |   |   |   |   |   |   |   |   |   |   |   |   |   |   topic_27 < 0.05
|   |   |   |   |   |   |   |   |   |   |   |   |   |   |   |   |   |   |   |   |   |   |   |   |   |   |   |   |   |   |   |   |   |   |   |   topic_40 < 0.07
|   |   |   |   |   |   |   |   |   |   |   |   |   |   |   |   |   |   |   |   |   |   |   |   |   |   |   |   |   |   |   |   |   |   |   |   |   topic_8 < 0 : positive (14/4) [7/0]
|   |   |   |   |   |   |   |   |   |   |   |   |   |   |   |   |   |   |   |   |   |   |   |   |   |   |   |   |   |   |   |   |   |   |   |   |   topic_8 >= 0 : negative (18/5) [13/6]
|   |   |   |   |   |   |   |   |   |   |   |   |   |   |   |   |   |   |   |   |   |   |   |   |   |   |   |   |   |   |   |   |   |   |   |   topic_40 >= 0.07 : negative (4/0) [1/0]
|   |   |   |   |   |   |   |   |   |   |   |   |   |   |   |   |   |   |   |   |   |   |   |   |   |   |   |   |   |   |   |   |   |   |   topic_27 >= 0.05 : negative (6/0) [1/0]
|   |   |   |   |   |   |   |   |   |   |   |   |   |   |   |   |   |   |   |   |   |   |   |   |   |   |   |   topic_43 >= 0.11 : negative (4/0) [0/0]
|   |   |   |   |   |   |   |   |   |   |   |   |   |   |   |   |   |   |   |   |   |   |   |   |   |   |   topic_43 >= 0.25 : positive (2/0) [0/0]
|   |   |   |   |   |   |   |   |   |   |   |   |   |   |   |   |   |   |   |   |   |   |   |   |   |   topic_43 >= 0.42 : negative (4/0) [1/1]
|   |   |   |   |   |   |   |   |   |   |   |   |   |   |   |   |   |   |   |   |   |   |   |   |   topic_20 >= 0.26 : positive (2/0) [2/1]
|   |   |   |   |   |   |   |   |   |   |   |   |   |   |   |   |   |   |   |   |   topic_46 >= 0.23 : positive (9/1) [11/4]
|   |   |   |   |   |   |   |   |   |   |   |   |   |   |   |   |   |   |   |   topic_46 >= 0.3
|   |   |   |   |   |   |   |   |   |   |   |   |   |   |   |   |   |   |   |   |   topic_46 < 0.54 : negative (36/7) [17/6]
|   |   |   |   |   |   |   |   |   |   |   |   |   |   |   |   |   |   |   |   |   topic_46 >= 0.54
|   |   |   |   |   |   |   |   |   |   |   |   |   |   |   |   |   |   |   |   |   |   topic_46 < 0.74 : positive (5/0) [4/2]
|   |   |   |   |   |   |   |   |   |   |   |   |   |   |   |   |   |   |   |   |   |   topic_46 >= 0.74
|   |   |   |   |   |   |   |   |   |   |   |   |   |   |   |   |   |   |   |   |   |   |   topic_46 < 0.77 : negative (4/0) [0/0]
|   |   |   |   |   |   |   |   |   |   |   |   |   |   |   |   |   |   |   |   |   |   |   topic_46 >= 0.77
|   |   |   |   |   |   |   |   |   |   |   |   |   |   |   |   |   |   |   |   |   |   |   |   topic_20 < 0.01 : negative (6/2) [5/1]
|   |   |   |   |   |   |   |   |   |   |   |   |   |   |   |   |   |   |   |   |   |   |   |   topic_20 >= 0.01 : positive (3/0) [1/0]
|   |   |   |   |   |   |   |   |   |   |   |   |   |   |   |   |   |   |   topic_27 >= 0.29
|   |   |   |   |   |   |   |   |   |   |   |   |   |   |   |   |   |   |   |   topic_46 < 0 : negative (13/0) [4/1]
|   |   |   |   |   |   |   |   |   |   |   |   |   |   |   |   |   |   |   |   topic_46 >= 0
|   |   |   |   |   |   |   |   |   |   |   |   |   |   |   |   |   |   |   |   |   topic_22 < 0 : negative (71/26) [43/12]
|   |   |   |   |   |   |   |   |   |   |   |   |   |   |   |   |   |   |   |   |   topic_22 >= 0 : positive (5/0) [5/2]
|   |   |   |   |   |   |   |   |   |   |   |   |   |   |   |   |   |   topic_16 >= 0.01
|   |   |   |   |   |   |   |   |   |   |   |   |   |   |   |   |   |   |   topic_9 < 0 : negative (4/0) [1/0]
|   |   |   |   |   |   |   |   |   |   |   |   |   |   |   |   |   |   |   topic_9 >= 0
|   |   |   |   |   |   |   |   |   |   |   |   |   |   |   |   |   |   |   |   topic_20 < 0.13
|   |   |   |   |   |   |   |   |   |   |   |   |   |   |   |   |   |   |   |   |   topic_43 < 0.06
|   |   |   |   |   |   |   |   |   |   |   |   |   |   |   |   |   |   |   |   |   |   topic_16 < 0.04 : positive (8/0) [2/1]
|   |   |   |   |   |   |   |   |   |   |   |   |   |   |   |   |   |   |   |   |   |   topic_16 >= 0.04
|   |   |   |   |   |   |   |   |   |   |   |   |   |   |   |   |   |   |   |   |   |   |   topic_27 < 0 : negative (29/13) [24/11]
|   |   |   |   |   |   |   |   |   |   |   |   |   |   |   |   |   |   |   |   |   |   |   topic_27 >= 0
|   |   |   |   |   |   |   |   |   |   |   |   |   |   |   |   |   |   |   |   |   |   |   |   topic_46 < 0 : positive (26/4) [12/8]
|   |   |   |   |   |   |   |   |   |   |   |   |   |   |   |   |   |   |   |   |   |   |   |   topic_46 >= 0
|   |   |   |   |   |   |   |   |   |   |   |   |   |   |   |   |   |   |   |   |   |   |   |   |   topic_16 < 0.05 : negative (3/0) [2/0]
|   |   |   |   |   |   |   |   |   |   |   |   |   |   |   |   |   |   |   |   |   |   |   |   |   topic_16 >= 0.05
|   |   |   |   |   |   |   |   |   |   |   |   |   |   |   |   |   |   |   |   |   |   |   |   |   |   topic_18 < 0 : positive (6/0) [5/4]
|   |   |   |   |   |   |   |   |   |   |   |   |   |   |   |   |   |   |   |   |   |   |   |   |   |   topic_18 >= 0
|   |   |   |   |   |   |   |   |   |   |   |   |   |   |   |   |   |   |   |   |   |   |   |   |   |   |   topic_22 < 0
|   |   |   |   |   |   |   |   |   |   |   |   |   |   |   |   |   |   |   |   |   |   |   |   |   |   |   |   topic_38 < 0
|   |   |   |   |   |   |   |   |   |   |   |   |   |   |   |   |   |   |   |   |   |   |   |   |   |   |   |   |   topic_35 < 0 : positive (18/8) [4/1]
|   |   |   |   |   |   |   |   |   |   |   |   |   |   |   |   |   |   |   |   |   |   |   |   |   |   |   |   |   topic_35 >= 0 : negative (2/0) [1/0]
|   |   |   |   |   |   |   |   |   |   |   |   |   |   |   |   |   |   |   |   |   |   |   |   |   |   |   |   topic_38 >= 0 : positive (5/0) [4/0]
|   |   |   |   |   |   |   |   |   |   |   |   |   |   |   |   |   |   |   |   |   |   |   |   |   |   |   topic_22 >= 0 : negative (3/0) [0/0]
|   |   |   |   |   |   |   |   |   |   |   |   |   |   |   |   |   |   |   |   |   topic_43 >= 0.06 : negative (4/0) [3/1]
|   |   |   |   |   |   |   |   |   |   |   |   |   |   |   |   |   |   |   |   topic_20 >= 0.13 : positive (5/0) [1/1]
|   |   |   |   |   |   |   |   |   |   |   |   |   |   |   |   topic_47 >= 0.4 : positive (5/0) [4/1]
|   |   |   |   |   |   |   |   |   |   |   |   |   |   |   topic_47 >= 0.43
|   |   |   |   |   |   |   |   |   |   |   |   |   |   |   |   topic_16 < 0
|   |   |   |   |   |   |   |   |   |   |   |   |   |   |   |   |   topic_47 < 0.86 : negative (19/4) [12/6]
|   |   |   |   |   |   |   |   |   |   |   |   |   |   |   |   |   topic_47 >= 0.86 : positive (4/1) [3/0]
|   |   |   |   |   |   |   |   |   |   |   |   |   |   |   |   topic_16 >= 0 : negative (6/0) [5/1]
|   |   |   |   |   |   |   |   |   |   |   |   |   topic_45 >= 0
|   |   |   |   |   |   |   |   |   |   |   |   |   |   topic_2 < 0.01
|   |   |   |   |   |   |   |   |   |   |   |   |   |   |   topic_40 < 0
|   |   |   |   |   |   |   |   |   |   |   |   |   |   |   |   topic_22 < 0
|   |   |   |   |   |   |   |   |   |   |   |   |   |   |   |   |   topic_18 < 0
|   |   |   |   |   |   |   |   |   |   |   |   |   |   |   |   |   |   topic_16 < 0.16
|   |   |   |   |   |   |   |   |   |   |   |   |   |   |   |   |   |   |   topic_27 < 0.35
|   |   |   |   |   |   |   |   |   |   |   |   |   |   |   |   |   |   |   |   topic_20 < 0.01
|   |   |   |   |   |   |   |   |   |   |   |   |   |   |   |   |   |   |   |   |   topic_7 < 0.01
|   |   |   |   |   |   |   |   |   |   |   |   |   |   |   |   |   |   |   |   |   |   topic_43 < 0.14
|   |   |   |   |   |   |   |   |   |   |   |   |   |   |   |   |   |   |   |   |   |   |   topic_9 < 0
|   |   |   |   |   |   |   |   |   |   |   |   |   |   |   |   |   |   |   |   |   |   |   |   topic_38 < 0 : negative (5/2) [1/0]
|   |   |   |   |   |   |   |   |   |   |   |   |   |   |   |   |   |   |   |   |   |   |   |   topic_38 >= 0 : positive (12/1) [3/2]
|   |   |   |   |   |   |   |   |   |   |   |   |   |   |   |   |   |   |   |   |   |   |   topic_9 >= 0
|   |   |   |   |   |   |   |   |   |   |   |   |   |   |   |   |   |   |   |   |   |   |   |   topic_16 < 0 : negative (5/0) [4/2]
|   |   |   |   |   |   |   |   |   |   |   |   |   |   |   |   |   |   |   |   |   |   |   |   topic_16 >= 0 : positive (11/5) [1/0]
|   |   |   |   |   |   |   |   |   |   |   |   |   |   |   |   |   |   |   |   |   |   topic_43 >= 0.14 : positive (6/0) [2/1]
|   |   |   |   |   |   |   |   |   |   |   |   |   |   |   |   |   |   |   |   |   topic_7 >= 0.01 : positive (6/0) [1/1]
|   |   |   |   |   |   |   |   |   |   |   |   |   |   |   |   |   |   |   |   topic_20 >= 0.01 : positive (9/0) [3/1]
|   |   |   |   |   |   |   |   |   |   |   |   |   |   |   |   |   |   |   topic_27 >= 0.35 : negative (2/0) [0/0]
|   |   |   |   |   |   |   |   |   |   |   |   |   |   |   |   |   |   topic_16 >= 0.16 : negative (2/0) [1/0]
|   |   |   |   |   |   |   |   |   |   |   |   |   |   |   |   |   topic_18 >= 0 : negative (4/0) [3/2]
|   |   |   |   |   |   |   |   |   |   |   |   |   |   |   |   topic_22 >= 0 : positive (14/0) [6/2]
|   |   |   |   |   |   |   |   |   |   |   |   |   |   |   topic_40 >= 0 : positive (495/231) [228/102]
|   |   |   |   |   |   |   |   |   |   |   |   |   |   topic_2 >= 0.01 : positive (8/0) [1/1]
|   |   |   |   |   |   |   |   |   topic_35 >= 0.1
|   |   |   |   |   |   |   |   |   |   topic_35 < 0.1 : positive (8/0) [2/2]
|   |   |   |   |   |   |   |   |   |   topic_35 >= 0.1
|   |   |   |   |   |   |   |   |   |   |   topic_27 < 0 : positive (12/1) [6/1]
|   |   |   |   |   |   |   |   |   |   |   topic_27 >= 0
|   |   |   |   |   |   |   |   |   |   |   |   topic_42 < 0
|   |   |   |   |   |   |   |   |   |   |   |   |   topic_27 < 0 : positive (5/2) [2/0]
|   |   |   |   |   |   |   |   |   |   |   |   |   topic_27 >= 0 : negative (8/0) [6/4]
|   |   |   |   |   |   |   |   |   |   |   |   topic_42 >= 0
|   |   |   |   |   |   |   |   |   |   |   |   |   topic_48 < 0 : positive (8/0) [1/0]
|   |   |   |   |   |   |   |   |   |   |   |   |   topic_48 >= 0
|   |   |   |   |   |   |   |   |   |   |   |   |   |   topic_1 < 0 : negative (4/0) [0/0]
|   |   |   |   |   |   |   |   |   |   |   |   |   |   topic_1 >= 0
|   |   |   |   |   |   |   |   |   |   |   |   |   |   |   topic_46 < 0 : positive (41/10) [10/1]
|   |   |   |   |   |   |   |   |   |   |   |   |   |   |   topic_46 >= 0
|   |   |   |   |   |   |   |   |   |   |   |   |   |   |   |   topic_42 < 0
|   |   |   |   |   |   |   |   |   |   |   |   |   |   |   |   |   topic_22 < 0
|   |   |   |   |   |   |   |   |   |   |   |   |   |   |   |   |   |   topic_38 < 0.02
|   |   |   |   |   |   |   |   |   |   |   |   |   |   |   |   |   |   |   topic_40 < 0.02
|   |   |   |   |   |   |   |   |   |   |   |   |   |   |   |   |   |   |   |   topic_18 < 0
|   |   |   |   |   |   |   |   |   |   |   |   |   |   |   |   |   |   |   |   |   topic_7 < 0.19
|   |   |   |   |   |   |   |   |   |   |   |   |   |   |   |   |   |   |   |   |   |   topic_45 < 0 : negative (3/0) [3/1]
|   |   |   |   |   |   |   |   |   |   |   |   |   |   |   |   |   |   |   |   |   |   topic_45 >= 0
|   |   |   |   |   |   |   |   |   |   |   |   |   |   |   |   |   |   |   |   |   |   |   topic_45 < 0 : positive (3/0) [3/1]
|   |   |   |   |   |   |   |   |   |   |   |   |   |   |   |   |   |   |   |   |   |   |   topic_45 >= 0 : negative (10/4) [11/5]
|   |   |   |   |   |   |   |   |   |   |   |   |   |   |   |   |   |   |   |   |   topic_7 >= 0.19 : positive (2/0) [0/0]
|   |   |   |   |   |   |   |   |   |   |   |   |   |   |   |   |   |   |   |   topic_18 >= 0 : positive (2/0) [2/1]
|   |   |   |   |   |   |   |   |   |   |   |   |   |   |   |   |   |   |   topic_40 >= 0.02 : negative (2/0) [0/0]
|   |   |   |   |   |   |   |   |   |   |   |   |   |   |   |   |   |   topic_38 >= 0.02 : negative (3/0) [0/0]
|   |   |   |   |   |   |   |   |   |   |   |   |   |   |   |   |   topic_22 >= 0 : negative (4/0) [3/1]
|   |   |   |   |   |   |   |   |   |   |   |   |   |   |   |   topic_42 >= 0 : positive (58/21) [26/12]
|   |   |   |   |   |   |   |   topic_23 >= 0.05
|   |   |   |   |   |   |   |   |   topic_23 < 0.21 : positive (60/11) [27/15]
|   |   |   |   |   |   |   |   |   topic_23 >= 0.21
|   |   |   |   |   |   |   |   |   |   topic_48 < 0.05
|   |   |   |   |   |   |   |   |   |   |   topic_46 < 0.09
|   |   |   |   |   |   |   |   |   |   |   |   topic_45 < 0
|   |   |   |   |   |   |   |   |   |   |   |   |   topic_48 < 0 : negative (3/0) [3/1]
|   |   |   |   |   |   |   |   |   |   |   |   |   topic_48 >= 0 : positive (9/1) [5/2]
|   |   |   |   |   |   |   |   |   |   |   |   topic_45 >= 0 : negative (21/3) [12/6]
|   |   |   |   |   |   |   |   |   |   |   topic_46 >= 0.09 : positive (3/0) [4/1]
|   |   |   |   |   |   |   |   |   |   topic_48 >= 0.05 : positive (4/0) [0/0]
|   |   |   |   |   |   |   topic_9 >= 0.67 : negative (6/0) [2/1]
|   |   |   |   |   |   topic_48 >= 0.38
|   |   |   |   |   |   |   topic_48 < 0.42 : positive (9/0) [7/3]
|   |   |   |   |   |   |   topic_48 >= 0.42
|   |   |   |   |   |   |   |   topic_19 < 0
|   |   |   |   |   |   |   |   |   topic_46 < 0.03
|   |   |   |   |   |   |   |   |   |   topic_7 < 0.15
|   |   |   |   |   |   |   |   |   |   |   topic_48 < 0.8
|   |   |   |   |   |   |   |   |   |   |   |   topic_27 < 0
|   |   |   |   |   |   |   |   |   |   |   |   |   topic_22 < 0
|   |   |   |   |   |   |   |   |   |   |   |   |   |   topic_43 < 0 : positive (8/1) [8/1]
|   |   |   |   |   |   |   |   |   |   |   |   |   |   topic_43 >= 0
|   |   |   |   |   |   |   |   |   |   |   |   |   |   |   topic_20 < 0 : negative (3/0) [1/0]
|   |   |   |   |   |   |   |   |   |   |   |   |   |   |   topic_20 >= 0 : positive (10/3) [4/1]
|   |   |   |   |   |   |   |   |   |   |   |   |   topic_22 >= 0 : negative (2/0) [0/0]
|   |   |   |   |   |   |   |   |   |   |   |   topic_27 >= 0 : positive (19/1) [7/3]
|   |   |   |   |   |   |   |   |   |   |   topic_48 >= 0.8 : negative (13/6) [12/5]
|   |   |   |   |   |   |   |   |   |   topic_7 >= 0.15 : negative (2/0) [0/0]
|   |   |   |   |   |   |   |   |   topic_46 >= 0.03 : positive (8/0) [2/0]
|   |   |   |   |   |   |   |   topic_19 >= 0 : negative (4/0) [1/1]
|   |   |   |   |   topic_2 >= 0.11
|   |   |   |   |   |   topic_2 < 0.22 : negative (31/5) [20/5]
|   |   |   |   |   |   topic_2 >= 0.22
|   |   |   |   |   |   |   topic_47 < 0.02
|   |   |   |   |   |   |   |   topic_35 < 0
|   |   |   |   |   |   |   |   |   topic_48 < 0 : positive (17/7) [5/2]
|   |   |   |   |   |   |   |   |   topic_48 >= 0 : negative (38/8) [16/4]
|   |   |   |   |   |   |   |   topic_35 >= 0
|   |   |   |   |   |   |   |   |   topic_40 < 0 : positive (14/3) [6/3]
|   |   |   |   |   |   |   |   |   topic_40 >= 0 : negative (2/0) [1/0]
|   |   |   |   |   |   |   topic_47 >= 0.02 : positive (6/0) [0/0]
|   |   |   |   topic_13 >= 0.03 : negative (159/62) [86/35]
|   |   |   topic_19 >= 0.05 : negative (138/50) [64/34]
|   |   topic_40 >= 0.15 : negative (101/28) [39/11]
|   topic_1 >= 0
|   |   topic_42 < 0.2
|   |   |   topic_13 < 0.11
|   |   |   |   topic_48 < 0.29
|   |   |   |   |   topic_48 < 0 : positive (39/6) [13/5]
|   |   |   |   |   topic_48 >= 0
|   |   |   |   |   |   topic_20 < 0.67
|   |   |   |   |   |   |   topic_22 < 0 : negative (5/0) [3/1]
|   |   |   |   |   |   |   topic_22 >= 0
|   |   |   |   |   |   |   |   topic_14 < 0.37
|   |   |   |   |   |   |   |   |   topic_34 < 0.17
|   |   |   |   |   |   |   |   |   |   topic_27 < 0.83
|   |   |   |   |   |   |   |   |   |   |   topic_27 < 0.79
|   |   |   |   |   |   |   |   |   |   |   |   topic_38 < 0
|   |   |   |   |   |   |   |   |   |   |   |   |   topic_1 < 0.07
|   |   |   |   |   |   |   |   |   |   |   |   |   |   topic_48 < 0 : negative (32/8) [25/12]
|   |   |   |   |   |   |   |   |   |   |   |   |   |   topic_48 >= 0
|   |   |   |   |   |   |   |   |   |   |   |   |   |   |   topic_46 < 0.2
|   |   |   |   |   |   |   |   |   |   |   |   |   |   |   |   topic_11 < 0.17
|   |   |   |   |   |   |   |   |   |   |   |   |   |   |   |   |   topic_11 < 0.09
|   |   |   |   |   |   |   |   |   |   |   |   |   |   |   |   |   |   topic_9 < 0.44
|   |   |   |   |   |   |   |   |   |   |   |   |   |   |   |   |   |   |   topic_34 < 0.06
|   |   |   |   |   |   |   |   |   |   |   |   |   |   |   |   |   |   |   |   topic_42 < 0.08
|   |   |   |   |   |   |   |   |   |   |   |   |   |   |   |   |   |   |   |   |   topic_42 < 0.02
|   |   |   |   |   |   |   |   |   |   |   |   |   |   |   |   |   |   |   |   |   |   topic_43 < 0.63
|   |   |   |   |   |   |   |   |   |   |   |   |   |   |   |   |   |   |   |   |   |   |   topic_9 < 0.37
|   |   |   |   |   |   |   |   |   |   |   |   |   |   |   |   |   |   |   |   |   |   |   |   topic_9 < 0.17
|   |   |   |   |   |   |   |   |   |   |   |   |   |   |   |   |   |   |   |   |   |   |   |   |   topic_18 < 0.07
|   |   |   |   |   |   |   |   |   |   |   |   |   |   |   |   |   |   |   |   |   |   |   |   |   |   topic_23 < 0.15
|   |   |   |   |   |   |   |   |   |   |   |   |   |   |   |   |   |   |   |   |   |   |   |   |   |   |   topic_7 < 0
|   |   |   |   |   |   |   |   |   |   |   |   |   |   |   |   |   |   |   |   |   |   |   |   |   |   |   |   topic_47 < 0.97
|   |   |   |   |   |   |   |   |   |   |   |   |   |   |   |   |   |   |   |   |   |   |   |   |   |   |   |   |   topic_47 < 0.62
|   |   |   |   |   |   |   |   |   |   |   |   |   |   |   |   |   |   |   |   |   |   |   |   |   |   |   |   |   |   topic_18 < 0.04
|   |   |   |   |   |   |   |   |   |   |   |   |   |   |   |   |   |   |   |   |   |   |   |   |   |   |   |   |   |   |   topic_27 < 0.77
|   |   |   |   |   |   |   |   |   |   |   |   |   |   |   |   |   |   |   |   |   |   |   |   |   |   |   |   |   |   |   |   topic_27 < 0.15 : positive (390/162) [199/78]
|   |   |   |   |   |   |   |   |   |   |   |   |   |   |   |   |   |   |   |   |   |   |   |   |   |   |   |   |   |   |   |   topic_27 >= 0.15
|   |   |   |   |   |   |   |   |   |   |   |   |   |   |   |   |   |   |   |   |   |   |   |   |   |   |   |   |   |   |   |   |   topic_22 < 0
|   |   |   |   |   |   |   |   |   |   |   |   |   |   |   |   |   |   |   |   |   |   |   |   |   |   |   |   |   |   |   |   |   |   topic_45 < 0
|   |   |   |   |   |   |   |   |   |   |   |   |   |   |   |   |   |   |   |   |   |   |   |   |   |   |   |   |   |   |   |   |   |   |   topic_27 < 0.5 : negative (4/1) [4/1]
|   |   |   |   |   |   |   |   |   |   |   |   |   |   |   |   |   |   |   |   |   |   |   |   |   |   |   |   |   |   |   |   |   |   |   topic_27 >= 0.5 : positive (2/0) [2/0]
|   |   |   |   |   |   |   |   |   |   |   |   |   |   |   |   |   |   |   |   |   |   |   |   |   |   |   |   |   |   |   |   |   |   topic_45 >= 0 : positive (9/0) [3/1]
|   |   |   |   |   |   |   |   |   |   |   |   |   |   |   |   |   |   |   |   |   |   |   |   |   |   |   |   |   |   |   |   |   topic_22 >= 0
|   |   |   |   |   |   |   |   |   |   |   |   |   |   |   |   |   |   |   |   |   |   |   |   |   |   |   |   |   |   |   |   |   |   topic_19 < 0
|   |   |   |   |   |   |   |   |   |   |   |   |   |   |   |   |   |   |   |   |   |   |   |   |   |   |   |   |   |   |   |   |   |   |   topic_27 < 0.41
|   |   |   |   |   |   |   |   |   |   |   |   |   |   |   |   |   |   |   |   |   |   |   |   |   |   |   |   |   |   |   |   |   |   |   |   topic_48 < 0
|   |   |   |   |   |   |   |   |   |   |   |   |   |   |   |   |   |   |   |   |   |   |   |   |   |   |   |   |   |   |   |   |   |   |   |   |   topic_22 < 0
|   |   |   |   |   |   |   |   |   |   |   |   |   |   |   |   |   |   |   |   |   |   |   |   |   |   |   |   |   |   |   |   |   |   |   |   |   |   topic_27 < 0.24 : negative (2/0) [2/1]
|   |   |   |   |   |   |   |   |   |   |   |   |   |   |   |   |   |   |   |   |   |   |   |   |   |   |   |   |   |   |   |   |   |   |   |   |   |   topic_27 >= 0.24
|   |   |   |   |   |   |   |   |   |   |   |   |   |   |   |   |   |   |   |   |   |   |   |   |   |   |   |   |   |   |   |   |   |   |   |   |   |   |   topic_27 < 0.34 : positive (2/0) [1/0]
|   |   |   |   |   |   |   |   |   |   |   |   |   |   |   |   |   |   |   |   |   |   |   |   |   |   |   |   |   |   |   |   |   |   |   |   |   |   |   topic_27 >= 0.34 : negative (2/0) [2/1]
|   |   |   |   |   |   |   |   |   |   |   |   |   |   |   |   |   |   |   |   |   |   |   |   |   |   |   |   |   |   |   |   |   |   |   |   |   topic_22 >= 0 : negative (10/0) [2/1]
|   |   |   |   |   |   |   |   |   |   |   |   |   |   |   |   |   |   |   |   |   |   |   |   |   |   |   |   |   |   |   |   |   |   |   |   topic_48 >= 0
|   |   |   |   |   |   |   |   |   |   |   |   |   |   |   |   |   |   |   |   |   |   |   |   |   |   |   |   |   |   |   |   |   |   |   |   |   topic_35 < 0 : positive (2/0) [1/0]
|   |   |   |   |   |   |   |   |   |   |   |   |   |   |   |   |   |   |   |   |   |   |   |   |   |   |   |   |   |   |   |   |   |   |   |   |   topic_35 >= 0 : negative (4/1) [0/0]
|   |   |   |   |   |   |   |   |   |   |   |   |   |   |   |   |   |   |   |   |   |   |   |   |   |   |   |   |   |   |   |   |   |   |   topic_27 >= 0.41
|   |   |   |   |   |   |   |   |   |   |   |   |   |   |   |   |   |   |   |   |   |   |   |   |   |   |   |   |   |   |   |   |   |   |   |   topic_16 < 0
|   |   |   |   |   |   |   |   |   |   |   |   |   |   |   |   |   |   |   |   |   |   |   |   |   |   |   |   |   |   |   |   |   |   |   |   |   topic_45 < 0 : positive (10/3) [7/3]
|   |   |   |   |   |   |   |   |   |   |   |   |   |   |   |   |   |   |   |   |   |   |   |   |   |   |   |   |   |   |   |   |   |   |   |   |   topic_45 >= 0 : negative (9/2) [1/0]
|   |   |   |   |   |   |   |   |   |   |   |   |   |   |   |   |   |   |   |   |   |   |   |   |   |   |   |   |   |   |   |   |   |   |   |   topic_16 >= 0 : positive (6/0) [3/1]
|   |   |   |   |   |   |   |   |   |   |   |   |   |   |   |   |   |   |   |   |   |   |   |   |   |   |   |   |   |   |   |   |   |   topic_19 >= 0 : negative (7/0) [2/1]
|   |   |   |   |   |   |   |   |   |   |   |   |   |   |   |   |   |   |   |   |   |   |   |   |   |   |   |   |   |   |   topic_27 >= 0.77 : positive (3/0) [1/1]
|   |   |   |   |   |   |   |   |   |   |   |   |   |   |   |   |   |   |   |   |   |   |   |   |   |   |   |   |   |   topic_18 >= 0.04 : positive (3/0) [1/1]
|   |   |   |   |   |   |   |   |   |   |   |   |   |   |   |   |   |   |   |   |   |   |   |   |   |   |   |   |   topic_47 >= 0.62 : positive (6/0) [6/3]
|   |   |   |   |   |   |   |   |   |   |   |   |   |   |   |   |   |   |   |   |   |   |   |   |   |   |   |   topic_47 >= 0.97 : negative (2/0) [1/0]
|   |   |   |   |   |   |   |   |   |   |   |   |   |   |   |   |   |   |   |   |   |   |   |   |   |   |   topic_7 >= 0 : positive (25/6) [13/8]
|   |   |   |   |   |   |   |   |   |   |   |   |   |   |   |   |   |   |   |   |   |   |   |   |   |   topic_23 >= 0.15 : positive (10/1) [3/2]
|   |   |   |   |   |   |   |   |   |   |   |   |   |   |   |   |   |   |   |   |   |   |   |   |   topic_18 >= 0.07 : negative (2/0) [2/0]
|   |   |   |   |   |   |   |   |   |   |   |   |   |   |   |   |   |   |   |   |   |   |   |   topic_9 >= 0.17 : positive (6/0) [6/4]
|   |   |   |   |   |   |   |   |   |   |   |   |   |   |   |   |   |   |   |   |   |   |   topic_9 >= 0.37 : negative (2/0) [0/0]
|   |   |   |   |   |   |   |   |   |   |   |   |   |   |   |   |   |   |   |   |   |   topic_43 >= 0.63 : negative (7/1) [5/3]
|   |   |   |   |   |   |   |   |   |   |   |   |   |   |   |   |   |   |   |   |   topic_42 >= 0.02 : positive (9/0) [2/1]
|   |   |   |   |   |   |   |   |   |   |   |   |   |   |   |   |   |   |   |   topic_42 >= 0.08
|   |   |   |   |   |   |   |   |   |   |   |   |   |   |   |   |   |   |   |   |   topic_35 < 0
|   |   |   |   |   |   |   |   |   |   |   |   |   |   |   |   |   |   |   |   |   |   topic_20 < 0.18
|   |   |   |   |   |   |   |   |   |   |   |   |   |   |   |   |   |   |   |   |   |   |   topic_42 < 0.17 : negative (10/0) [4/4]
|   |   |   |   |   |   |   |   |   |   |   |   |   |   |   |   |   |   |   |   |   |   |   topic_42 >= 0.17
|   |   |   |   |   |   |   |   |   |   |   |   |   |   |   |   |   |   |   |   |   |   |   |   topic_48 < 0 : negative (2/0) [0/0]
|   |   |   |   |   |   |   |   |   |   |   |   |   |   |   |   |   |   |   |   |   |   |   |   topic_48 >= 0 : positive (4/1) [1/0]
|   |   |   |   |   |   |   |   |   |   |   |   |   |   |   |   |   |   |   |   |   |   topic_20 >= 0.18 : positive (2/0) [1/0]
|   |   |   |   |   |   |   |   |   |   |   |   |   |   |   |   |   |   |   |   |   topic_35 >= 0 : positive (2/0) [2/1]
|   |   |   |   |   |   |   |   |   |   |   |   |   |   |   |   |   |   |   topic_34 >= 0.06 : positive (6/0) [1/1]
|   |   |   |   |   |   |   |   |   |   |   |   |   |   |   |   |   |   topic_9 >= 0.44 : positive (6/0) [4/3]
|   |   |   |   |   |   |   |   |   |   |   |   |   |   |   |   |   topic_11 >= 0.09 : negative (5/0) [4/1]
|   |   |   |   |   |   |   |   |   |   |   |   |   |   |   |   topic_11 >= 0.17 : positive (8/0) [6/2]
|   |   |   |   |   |   |   |   |   |   |   |   |   |   |   topic_46 >= 0.2
|   |   |   |   |   |   |   |   |   |   |   |   |   |   |   |   topic_27 < 0.24
|   |   |   |   |   |   |   |   |   |   |   |   |   |   |   |   |   topic_7 < 0 : negative (3/0) [5/1]
|   |   |   |   |   |   |   |   |   |   |   |   |   |   |   |   |   topic_7 >= 0
|   |   |   |   |   |   |   |   |   |   |   |   |   |   |   |   |   |   topic_20 < 0.09 : positive (44/9) [22/10]
|   |   |   |   |   |   |   |   |   |   |   |   |   |   |   |   |   |   topic_20 >= 0.09 : negative (2/0) [3/1]
|   |   |   |   |   |   |   |   |   |   |   |   |   |   |   |   topic_27 >= 0.24 : positive (10/0) [7/0]
|   |   |   |   |   |   |   |   |   |   |   |   |   topic_1 >= 0.07
|   |   |   |   |   |   |   |   |   |   |   |   |   |   topic_27 < 0.11
|   |   |   |   |   |   |   |   |   |   |   |   |   |   |   topic_35 < 0
|   |   |   |   |   |   |   |   |   |   |   |   |   |   |   |   topic_19 < 0
|   |   |   |   |   |   |   |   |   |   |   |   |   |   |   |   |   topic_1 < 0.63
|   |   |   |   |   |   |   |   |   |   |   |   |   |   |   |   |   |   topic_47 < 0
|   |   |   |   |   |   |   |   |   |   |   |   |   |   |   |   |   |   |   topic_16 < 0 : positive (7/1) [4/0]
|   |   |   |   |   |   |   |   |   |   |   |   |   |   |   |   |   |   |   topic_16 >= 0 : negative (7/0) [3/2]
|   |   |   |   |   |   |   |   |   |   |   |   |   |   |   |   |   |   topic_47 >= 0
|   |   |   |   |   |   |   |   |   |   |   |   |   |   |   |   |   |   |   topic_43 < 0 : positive (23/0) [11/4]
|   |   |   |   |   |   |   |   |   |   |   |   |   |   |   |   |   |   |   topic_43 >= 0
|   |   |   |   |   |   |   |   |   |   |   |   |   |   |   |   |   |   |   |   topic_42 < 0 : negative (5/1) [4/3]
|   |   |   |   |   |   |   |   |   |   |   |   |   |   |   |   |   |   |   |   topic_42 >= 0
|   |   |   |   |   |   |   |   |   |   |   |   |   |   |   |   |   |   |   |   |   topic_16 < 0 : positive (15/0) [3/3]
|   |   |   |   |   |   |   |   |   |   |   |   |   |   |   |   |   |   |   |   |   topic_16 >= 0
|   |   |   |   |   |   |   |   |   |   |   |   |   |   |   |   |   |   |   |   |   |   topic_18 < 0 : negative (6/2) [2/0]
|   |   |   |   |   |   |   |   |   |   |   |   |   |   |   |   |   |   |   |   |   |   topic_18 >= 0
|   |   |   |   |   |   |   |   |   |   |   |   |   |   |   |   |   |   |   |   |   |   |   topic_40 < 0 : positive (31/2) [7/2]
|   |   |   |   |   |   |   |   |   |   |   |   |   |   |   |   |   |   |   |   |   |   |   topic_40 >= 0
|   |   |   |   |   |   |   |   |   |   |   |   |   |   |   |   |   |   |   |   |   |   |   |   topic_1 < 0.41
|   |   |   |   |   |   |   |   |   |   |   |   |   |   |   |   |   |   |   |   |   |   |   |   |   topic_9 < 0 : negative (13/5) [4/2]
|   |   |   |   |   |   |   |   |   |   |   |   |   |   |   |   |   |   |   |   |   |   |   |   |   topic_9 >= 0
|   |   |   |   |   |   |   |   |   |   |   |   |   |   |   |   |   |   |   |   |   |   |   |   |   |   topic_48 < 0
|   |   |   |   |   |   |   |   |   |   |   |   |   |   |   |   |   |   |   |   |   |   |   |   |   |   |   topic_9 < 0.2 : positive (19/1) [19/6]
|   |   |   |   |   |   |   |   |   |   |   |   |   |   |   |   |   |   |   |   |   |   |   |   |   |   |   topic_9 >= 0.2 : negative (2/1) [1/0]
|   |   |   |   |   |   |   |   |   |   |   |   |   |   |   |   |   |   |   |   |   |   |   |   |   |   topic_48 >= 0
|   |   |   |   |   |   |   |   |   |   |   |   |   |   |   |   |   |   |   |   |   |   |   |   |   |   |   topic_18 < 0 : negative (9/1) [2/0]
|   |   |   |   |   |   |   |   |   |   |   |   |   |   |   |   |   |   |   |   |   |   |   |   |   |   |   topic_18 >= 0 : positive (13/3) [6/2]
|   |   |   |   |   |   |   |   |   |   |   |   |   |   |   |   |   |   |   |   |   |   |   |   topic_1 >= 0.41 : positive (14/0) [9/2]
|   |   |   |   |   |   |   |   |   |   |   |   |   |   |   |   |   topic_1 >= 0.63
|   |   |   |   |   |   |   |   |   |   |   |   |   |   |   |   |   |   topic_1 < 0.7 : negative (7/0) [0/0]
|   |   |   |   |   |   |   |   |   |   |   |   |   |   |   |   |   |   topic_1 >= 0.7 : positive (8/2) [8/3]
|   |   |   |   |   |   |   |   |   |   |   |   |   |   |   |   topic_19 >= 0 : negative (3/0) [3/1]
|   |   |   |   |   |   |   |   |   |   |   |   |   |   |   topic_35 >= 0 : positive (12/0) [6/2]
|   |   |   |   |   |   |   |   |   |   |   |   |   |   topic_27 >= 0.11 : negative (5/0) [4/2]
|   |   |   |   |   |   |   |   |   |   |   |   topic_38 >= 0
|   |   |   |   |   |   |   |   |   |   |   |   |   topic_22 < 0
|   |   |   |   |   |   |   |   |   |   |   |   |   |   topic_20 < 0
|   |   |   |   |   |   |   |   |   |   |   |   |   |   |   topic_2 < 0 : positive (16/7) [12/4]
|   |   |   |   |   |   |   |   |   |   |   |   |   |   |   topic_2 >= 0 : negative (21/2) [6/2]
|   |   |   |   |   |   |   |   |   |   |   |   |   |   topic_20 >= 0
|   |   |   |   |   |   |   |   |   |   |   |   |   |   |   topic_19 < 0 : positive (9/0) [6/4]
|   |   |   |   |   |   |   |   |   |   |   |   |   |   |   topic_19 >= 0
|   |   |   |   |   |   |   |   |   |   |   |   |   |   |   |   topic_18 < 0.07
|   |   |   |   |   |   |   |   |   |   |   |   |   |   |   |   |   topic_40 < 0.33
|   |   |   |   |   |   |   |   |   |   |   |   |   |   |   |   |   |   topic_38 < 0.24
|   |   |   |   |   |   |   |   |   |   |   |   |   |   |   |   |   |   |   topic_19 < 0.04
|   |   |   |   |   |   |   |   |   |   |   |   |   |   |   |   |   |   |   |   topic_35 < 0 : positive (92/44) [65/25]
|   |   |   |   |   |   |   |   |   |   |   |   |   |   |   |   |   |   |   |   topic_35 >= 0 : negative (13/2) [9/4]
|   |   |   |   |   |   |   |   |   |   |   |   |   |   |   |   |   |   |   topic_19 >= 0.04 : negative (5/0) [0/0]
|   |   |   |   |   |   |   |   |   |   |   |   |   |   |   |   |   |   topic_38 >= 0.24
|   |   |   |   |   |   |   |   |   |   |   |   |   |   |   |   |   |   |   topic_35 < 0
|   |   |   |   |   |   |   |   |   |   |   |   |   |   |   |   |   |   |   |   topic_42 < 0.09
|   |   |   |   |   |   |   |   |   |   |   |   |   |   |   |   |   |   |   |   |   topic_42 < 0
|   |   |   |   |   |   |   |   |   |   |   |   |   |   |   |   |   |   |   |   |   |   topic_40 < 0.11
|   |   |   |   |   |   |   |   |   |   |   |   |   |   |   |   |   |   |   |   |   |   |   topic_1 < 0 : negative (8/2) [0/0]
|   |   |   |   |   |   |   |   |   |   |   |   |   |   |   |   |   |   |   |   |   |   |   topic_1 >= 0
|   |   |   |   |   |   |   |   |   |   |   |   |   |   |   |   |   |   |   |   |   |   |   |   topic_43 < 0.22
|   |   |   |   |   |   |   |   |   |   |   |   |   |   |   |   |   |   |   |   |   |   |   |   |   topic_43 < 0
|   |   |   |   |   |   |   |   |   |   |   |   |   |   |   |   |   |   |   |   |   |   |   |   |   |   topic_38 < 0.51
|   |   |   |   |   |   |   |   |   |   |   |   |   |   |   |   |   |   |   |   |   |   |   |   |   |   |   topic_38 < 0.36
|   |   |   |   |   |   |   |   |   |   |   |   |   |   |   |   |   |   |   |   |   |   |   |   |   |   |   |   topic_38 < 0.33
|   |   |   |   |   |   |   |   |   |   |   |   |   |   |   |   |   |   |   |   |   |   |   |   |   |   |   |   |   topic_1 < 0.05
|   |   |   |   |   |   |   |   |   |   |   |   |   |   |   |   |   |   |   |   |   |   |   |   |   |   |   |   |   |   topic_48 < 0 : positive (10/3) [5/0]
|   |   |   |   |   |   |   |   |   |   |   |   |   |   |   |   |   |   |   |   |   |   |   |   |   |   |   |   |   |   topic_48 >= 0 : negative (2/0) [1/0]
|   |   |   |   |   |   |   |   |   |   |   |   |   |   |   |   |   |   |   |   |   |   |   |   |   |   |   |   |   topic_1 >= 0.05 : positive (3/0) [4/3]
|   |   |   |   |   |   |   |   |   |   |   |   |   |   |   |   |   |   |   |   |   |   |   |   |   |   |   |   topic_38 >= 0.33 : positive (7/0) [2/0]
|   |   |   |   |   |   |   |   |   |   |   |   |   |   |   |   |   |   |   |   |   |   |   |   |   |   |   topic_38 >= 0.36 : negative (18/4) [12/4]
|   |   |   |   |   |   |   |   |   |   |   |   |   |   |   |   |   |   |   |   |   |   |   |   |   |   topic_38 >= 0.51
|   |   |   |   |   |   |   |   |   |   |   |   |   |   |   |   |   |   |   |   |   |   |   |   |   |   |   topic_1 < 0 : negative (10/5) [2/0]
|   |   |   |   |   |   |   |   |   |   |   |   |   |   |   |   |   |   |   |   |   |   |   |   |   |   |   topic_1 >= 0
|   |   |   |   |   |   |   |   |   |   |   |   |   |   |   |   |   |   |   |   |   |   |   |   |   |   |   |   topic_45 < 0 : positive (15/0) [18/5]
|   |   |   |   |   |   |   |   |   |   |   |   |   |   |   |   |   |   |   |   |   |   |   |   |   |   |   |   topic_45 >= 0
|   |   |   |   |   |   |   |   |   |   |   |   |   |   |   |   |   |   |   |   |   |   |   |   |   |   |   |   |   topic_48 < 0 : negative (3/1) [1/0]
|   |   |   |   |   |   |   |   |   |   |   |   |   |   |   |   |   |   |   |   |   |   |   |   |   |   |   |   |   topic_48 >= 0 : positive (2/0) [0/0]
|   |   |   |   |   |   |   |   |   |   |   |   |   |   |   |   |   |   |   |   |   |   |   |   |   topic_43 >= 0 : negative (6/1) [4/1]
|   |   |   |   |   |   |   |   |   |   |   |   |   |   |   |   |   |   |   |   |   |   |   |   topic_43 >= 0.22 : positive (5/0) [4/2]
|   |   |   |   |   |   |   |   |   |   |   |   |   |   |   |   |   |   |   |   |   |   topic_40 >= 0.11 : negative (8/1) [2/1]
|   |   |   |   |   |   |   |   |   |   |   |   |   |   |   |   |   |   |   |   |   topic_42 >= 0 : negative (6/0) [4/3]
|   |   |   |   |   |   |   |   |   |   |   |   |   |   |   |   |   |   |   |   topic_42 >= 0.09 : positive (9/0) [5/0]
|   |   |   |   |   |   |   |   |   |   |   |   |   |   |   |   |   |   |   topic_35 >= 0 : positive (10/0) [15/6]
|   |   |   |   |   |   |   |   |   |   |   |   |   |   |   |   |   topic_40 >= 0.33 : negative (7/1) [3/1]
|   |   |   |   |   |   |   |   |   |   |   |   |   |   |   |   topic_18 >= 0.07 : positive (5/0) [1/0]
|   |   |   |   |   |   |   |   |   |   |   |   |   topic_22 >= 0
|   |   |   |   |   |   |   |   |   |   |   |   |   |   topic_16 < 0 : positive (14/0) [7/3]
|   |   |   |   |   |   |   |   |   |   |   |   |   |   topic_16 >= 0 : negative (3/1) [3/1]
|   |   |   |   |   |   |   |   |   |   |   topic_27 >= 0.79 : negative (4/0) [2/1]
|   |   |   |   |   |   |   |   |   |   topic_27 >= 0.83 : positive (7/0) [8/4]
|   |   |   |   |   |   |   |   |   topic_34 >= 0.17 : positive (8/0) [6/5]
|   |   |   |   |   |   |   |   topic_14 >= 0.37 : negative (5/0) [0/0]
|   |   |   |   |   |   topic_20 >= 0.67 : negative (15/3) [13/7]
|   |   |   |   topic_48 >= 0.29 : positive (14/0) [7/2]
|   |   |   topic_13 >= 0.11
|   |   |   |   topic_13 < 0.25 : negative (17/1) [8/3]
|   |   |   |   topic_13 >= 0.25
|   |   |   |   |   topic_13 < 0.33 : positive (7/0) [1/0]
|   |   |   |   |   topic_13 >= 0.33 : negative (20/6) [9/6]
|   |   topic_42 >= 0.2
|   |   |   topic_18 < 0
|   |   |   |   topic_22 < 0 : positive (15/0) [10/1]
|   |   |   |   topic_22 >= 0
|   |   |   |   |   topic_48 < 0 : negative (3/0) [2/0]
|   |   |   |   |   topic_48 >= 0
|   |   |   |   |   |   topic_16 < 0
|   |   |   |   |   |   |   topic_27 < 0 : positive (8/0) [3/1]
|   |   |   |   |   |   |   topic_27 >= 0
|   |   |   |   |   |   |   |   topic_48 < 0 : negative (2/0) [0/0]
|   |   |   |   |   |   |   |   topic_48 >= 0
|   |   |   |   |   |   |   |   |   topic_47 < 0 : positive (8/0) [3/2]
|   |   |   |   |   |   |   |   |   topic_47 >= 0
|   |   |   |   |   |   |   |   |   |   topic_16 < 0 : negative (2/0) [3/1]
|   |   |   |   |   |   |   |   |   |   topic_16 >= 0 : positive (64/18) [38/12]
|   |   |   |   |   |   topic_16 >= 0 : positive (24/1) [9/1]
|   |   |   topic_18 >= 0 : negative (6/1) [3/2]
topic_18 >= 0.09
|   topic_1 < 0
|   |   topic_18 < 0.32
|   |   |   topic_9 < 0 : negative (241/81) [140/54]
|   |   |   topic_9 >= 0
|   |   |   |   topic_42 < 0.09 : negative (32/1) [15/3]
|   |   |   |   topic_42 >= 0.09 : positive (2/0) [1/0]
|   |   topic_18 >= 0.32 : negative (220/23) [85/20]
|   topic_1 >= 0
|   |   topic_43 < 0 : negative (199/67) [93/28]
|   |   topic_43 >= 0
|   |   |   topic_18 < 0.12 : positive (11/1) [5/3]
|   |   |   topic_18 >= 0.12
|   |   |   |   topic_18 < 0.96
|   |   |   |   |   topic_18 < 0.78
|   |   |   |   |   |   topic_42 < 0.1 : negative (153/66) [64/22]
|   |   |   |   |   |   topic_42 >= 0.1
|   |   |   |   |   |   |   topic_18 < 0.45 : positive (19/4) [11/4]
|   |   |   |   |   |   |   topic_18 >= 0.45 : negative (4/1) [4/0]
|   |   |   |   |   topic_18 >= 0.78 : positive (7/0) [1/0]
|   |   |   |   topic_18 >= 0.96 : negative (4/0) [0/0]

Size of the tree : 603

FilteredClassifier using weka.classifiers.trees.REPTree -M 2 -V 0.001 -N 3 -S 409330953 -L -1 -I 0.0 on data filtered through weka.filters.unsupervised.attribute.Remove -V -R 33,38,13,10,4,7,22,26,32,36,48,3,8,9,44,27,42,23,16,29,28,30,35,50,18,51

Filtered Header
@relation 'multidomain_topics-weka.filters.unsupervised.attribute.Remove-V-R33,38,13,10,4,7,22,26,32,36,48,3,8,9,44,27,42,23,16,29,28,30,35,50,18,51'

@attribute topic_33 numeric
@attribute topic_38 numeric
@attribute topic_13 numeric
@attribute topic_10 numeric
@attribute topic_4 numeric
@attribute topic_7 numeric
@attribute topic_22 numeric
@attribute topic_26 numeric
@attribute topic_32 numeric
@attribute topic_36 numeric
@attribute topic_48 numeric
@attribute topic_3 numeric
@attribute topic_8 numeric
@attribute topic_9 numeric
@attribute topic_44 numeric
@attribute topic_27 numeric
@attribute topic_42 numeric
@attribute topic_23 numeric
@attribute topic_16 numeric
@attribute topic_29 numeric
@attribute topic_28 numeric
@attribute topic_30 numeric
@attribute topic_35 numeric
@attribute topic_50 numeric
@attribute topic_18 numeric
@attribute class_atr {negative,positive}

@data


Classifier Model

REPTree
============

topic_18 < 0.14
|   topic_3 < 0.04
|   |   topic_42 < 0.17
|   |   |   topic_13 < 0
|   |   |   |   topic_22 < 0.61
|   |   |   |   |   topic_36 < 0.78
|   |   |   |   |   |   topic_23 < 0
|   |   |   |   |   |   |   topic_10 < 0
|   |   |   |   |   |   |   |   topic_8 < 0.89
|   |   |   |   |   |   |   |   |   topic_27 < 0
|   |   |   |   |   |   |   |   |   |   topic_33 < 0
|   |   |   |   |   |   |   |   |   |   |   topic_35 < 0
|   |   |   |   |   |   |   |   |   |   |   |   topic_33 < 0 : positive (3/0) [3/1]
|   |   |   |   |   |   |   |   |   |   |   |   topic_33 >= 0
|   |   |   |   |   |   |   |   |   |   |   |   |   topic_33 < 0 : negative (2/1) [2/0]
|   |   |   |   |   |   |   |   |   |   |   |   |   topic_33 >= 0 : positive (2/0) [0/0]
|   |   |   |   |   |   |   |   |   |   |   topic_35 >= 0
|   |   |   |   |   |   |   |   |   |   |   |   topic_28 < 0 : negative (4/0) [1/0]
|   |   |   |   |   |   |   |   |   |   |   |   topic_28 >= 0 : positive (10/4) [9/3]
|   |   |   |   |   |   |   |   |   |   topic_33 >= 0 : positive (28/2) [9/5]
|   |   |   |   |   |   |   |   |   topic_27 >= 0
|   |   |   |   |   |   |   |   |   |   topic_32 < 0
|   |   |   |   |   |   |   |   |   |   |   topic_48 < 0
|   |   |   |   |   |   |   |   |   |   |   |   topic_33 < 0
|   |   |   |   |   |   |   |   |   |   |   |   |   topic_50 < 0
|   |   |   |   |   |   |   |   |   |   |   |   |   |   topic_35 < 0.26
|   |   |   |   |   |   |   |   |   |   |   |   |   |   |   topic_29 < 0
|   |   |   |   |   |   |   |   |   |   |   |   |   |   |   |   topic_7 < 0
|   |   |   |   |   |   |   |   |   |   |   |   |   |   |   |   |   topic_35 < 0
|   |   |   |   |   |   |   |   |   |   |   |   |   |   |   |   |   |   topic_18 < 0
|   |   |   |   |   |   |   |   |   |   |   |   |   |   |   |   |   |   |   topic_4 < 0.05
|   |   |   |   |   |   |   |   |   |   |   |   |   |   |   |   |   |   |   |   topic_33 < 0 : positive (3/0) [1/1]
|   |   |   |   |   |   |   |   |   |   |   |   |   |   |   |   |   |   |   |   topic_33 >= 0
|   |   |   |   |   |   |   |   |   |   |   |   |   |   |   |   |   |   |   |   |   topic_33 < 0 : negative (2/0) [3/1]
|   |   |   |   |   |   |   |   |   |   |   |   |   |   |   |   |   |   |   |   |   topic_33 >= 0
|   |   |   |   |   |   |   |   |   |   |   |   |   |   |   |   |   |   |   |   |   |   topic_44 < 0 : positive (5/0) [3/0]
|   |   |   |   |   |   |   |   |   |   |   |   |   |   |   |   |   |   |   |   |   |   topic_44 >= 0
|   |   |   |   |   |   |   |   |   |   |   |   |   |   |   |   |   |   |   |   |   |   |   topic_27 < 0 : negative (2/0) [0/0]
|   |   |   |   |   |   |   |   |   |   |   |   |   |   |   |   |   |   |   |   |   |   |   topic_27 >= 0
|   |   |   |   |   |   |   |   |   |   |   |   |   |   |   |   |   |   |   |   |   |   |   |   topic_44 < 0.01 : negative (6/3) [9/1]
|   |   |   |   |   |   |   |   |   |   |   |   |   |   |   |   |   |   |   |   |   |   |   |   topic_44 >= 0.01 : positive (3/0) [0/0]
|   |   |   |   |   |   |   |   |   |   |   |   |   |   |   |   |   |   |   topic_4 >= 0.05 : positive (2/2) [4/0]
|   |   |   |   |   |   |   |   |   |   |   |   |   |   |   |   |   |   topic_18 >= 0 : positive (7/0) [2/1]
|   |   |   |   |   |   |   |   |   |   |   |   |   |   |   |   |   topic_35 >= 0 : negative (29/13) [14/6]
|   |   |   |   |   |   |   |   |   |   |   |   |   |   |   |   topic_7 >= 0 : positive (18/1) [9/3]
|   |   |   |   |   |   |   |   |   |   |   |   |   |   |   topic_29 >= 0 : negative (16/5) [7/3]
|   |   |   |   |   |   |   |   |   |   |   |   |   |   topic_35 >= 0.26 : positive (6/0) [2/1]
|   |   |   |   |   |   |   |   |   |   |   |   |   topic_50 >= 0 : negative (4/0) [3/1]
|   |   |   |   |   |   |   |   |   |   |   |   topic_33 >= 0 : positive (15/0) [7/4]
|   |   |   |   |   |   |   |   |   |   |   topic_48 >= 0
|   |   |   |   |   |   |   |   |   |   |   |   topic_8 < 0
|   |   |   |   |   |   |   |   |   |   |   |   |   topic_26 < 0 : positive (26/12) [10/3]
|   |   |   |   |   |   |   |   |   |   |   |   |   topic_26 >= 0
|   |   |   |   |   |   |   |   |   |   |   |   |   |   topic_26 < 0.03
|   |   |   |   |   |   |   |   |   |   |   |   |   |   |   topic_27 < 0
|   |   |   |   |   |   |   |   |   |   |   |   |   |   |   |   topic_38 < 0 : negative (5/0) [7/4]
|   |   |   |   |   |   |   |   |   |   |   |   |   |   |   |   topic_38 >= 0 : positive (3/0) [2/0]
|   |   |   |   |   |   |   |   |   |   |   |   |   |   |   topic_27 >= 0 : negative (19/0) [7/3]
|   |   |   |   |   |   |   |   |   |   |   |   |   |   topic_26 >= 0.03 : positive (2/0) [1/0]
|   |   |   |   |   |   |   |   |   |   |   |   topic_8 >= 0 : positive (55/20) [24/7]
|   |   |   |   |   |   |   |   |   |   topic_32 >= 0
|   |   |   |   |   |   |   |   |   |   |   topic_35 < 0 : positive (32/2) [16/8]
|   |   |   |   |   |   |   |   |   |   |   topic_35 >= 0
|   |   |   |   |   |   |   |   |   |   |   |   topic_38 < 0
|   |   |   |   |   |   |   |   |   |   |   |   |   topic_26 < 0
|   |   |   |   |   |   |   |   |   |   |   |   |   |   topic_7 < 0
|   |   |   |   |   |   |   |   |   |   |   |   |   |   |   topic_48 < 0.2
|   |   |   |   |   |   |   |   |   |   |   |   |   |   |   |   topic_29 < 0 : negative (5/0) [2/0]
|   |   |   |   |   |   |   |   |   |   |   |   |   |   |   |   topic_29 >= 0
|   |   |   |   |   |   |   |   |   |   |   |   |   |   |   |   |   topic_33 < 0 : positive (4/0) [1/0]
|   |   |   |   |   |   |   |   |   |   |   |   |   |   |   |   |   topic_33 >= 0
|   |   |   |   |   |   |   |   |   |   |   |   |   |   |   |   |   |   topic_3 < 0
|   |   |   |   |   |   |   |   |   |   |   |   |   |   |   |   |   |   |   topic_9 < 0 : negative (8/2) [2/0]
|   |   |   |   |   |   |   |   |   |   |   |   |   |   |   |   |   |   |   topic_9 >= 0 : positive (2/0) [2/0]
|   |   |   |   |   |   |   |   |   |   |   |   |   |   |   |   |   |   topic_3 >= 0 : negative (4/0) [3/2]
|   |   |   |   |   |   |   |   |   |   |   |   |   |   |   topic_48 >= 0.2 : positive (4/0) [2/0]
|   |   |   |   |   |   |   |   |   |   |   |   |   |   topic_7 >= 0 : positive (11/2) [6/5]
|   |   |   |   |   |   |   |   |   |   |   |   |   topic_26 >= 0 : negative (4/0) [4/1]
|   |   |   |   |   |   |   |   |   |   |   |   topic_38 >= 0 : positive (8/0) [5/2]
|   |   |   |   |   |   |   |   topic_8 >= 0.89 : negative (3/0) [3/3]
|   |   |   |   |   |   |   topic_10 >= 0
|   |   |   |   |   |   |   |   topic_4 < 0 : positive (3/0) [3/2]
|   |   |   |   |   |   |   |   topic_4 >= 0
|   |   |   |   |   |   |   |   |   topic_35 < 0 : negative (17/2) [16/8]
|   |   |   |   |   |   |   |   |   topic_35 >= 0
|   |   |   |   |   |   |   |   |   |   topic_33 < 0 : negative (3/0) [1/1]
|   |   |   |   |   |   |   |   |   |   topic_33 >= 0
|   |   |   |   |   |   |   |   |   |   |   topic_10 < 0.01 : negative (15/6) [2/0]
|   |   |   |   |   |   |   |   |   |   |   topic_10 >= 0.01 : positive (7/0) [8/2]
|   |   |   |   |   |   topic_23 >= 0
|   |   |   |   |   |   |   topic_10 < 0 : negative (5/1) [4/2]
|   |   |   |   |   |   |   topic_10 >= 0
|   |   |   |   |   |   |   |   topic_23 < 0.54 : positive (28/1) [17/4]
|   |   |   |   |   |   |   |   topic_23 >= 0.54 : negative (3/1) [4/1]
|   |   |   |   |   topic_36 >= 0.78 : positive (7/0) [4/3]
|   |   |   |   topic_22 >= 0.61 : negative (5/0) [0/0]
|   |   |   topic_13 >= 0
|   |   |   |   topic_44 < 0
|   |   |   |   |   topic_33 < 0.44
|   |   |   |   |   |   topic_35 < 0.23
|   |   |   |   |   |   |   topic_48 < 0.24
|   |   |   |   |   |   |   |   topic_32 < 0.18
|   |   |   |   |   |   |   |   |   topic_32 < 0.03
|   |   |   |   |   |   |   |   |   |   topic_28 < 0.64
|   |   |   |   |   |   |   |   |   |   |   topic_9 < 0.64
|   |   |   |   |   |   |   |   |   |   |   |   topic_7 < 0.15
|   |   |   |   |   |   |   |   |   |   |   |   |   topic_36 < 0.53
|   |   |   |   |   |   |   |   |   |   |   |   |   |   topic_33 < 0.08
|   |   |   |   |   |   |   |   |   |   |   |   |   |   |   topic_48 < 0.23
|   |   |   |   |   |   |   |   |   |   |   |   |   |   |   |   topic_48 < 0.22
|   |   |   |   |   |   |   |   |   |   |   |   |   |   |   |   |   topic_48 < 0.21
|   |   |   |   |   |   |   |   |   |   |   |   |   |   |   |   |   |   topic_30 < 0.65
|   |   |   |   |   |   |   |   |   |   |   |   |   |   |   |   |   |   |   topic_48 < 0.18
|   |   |   |   |   |   |   |   |   |   |   |   |   |   |   |   |   |   |   |   topic_22 < 0
|   |   |   |   |   |   |   |   |   |   |   |   |   |   |   |   |   |   |   |   |   topic_38 < 0.94
|   |   |   |   |   |   |   |   |   |   |   |   |   |   |   |   |   |   |   |   |   |   topic_18 < 0
|   |   |   |   |   |   |   |   |   |   |   |   |   |   |   |   |   |   |   |   |   |   |   topic_50 < 0.14
|   |   |   |   |   |   |   |   |   |   |   |   |   |   |   |   |   |   |   |   |   |   |   |   topic_8 < 0 : negative (6/0) [1/1]
|   |   |   |   |   |   |   |   |   |   |   |   |   |   |   |   |   |   |   |   |   |   |   |   topic_8 >= 0
|   |   |   |   |   |   |   |   |   |   |   |   |   |   |   |   |   |   |   |   |   |   |   |   |   topic_48 < 0 : positive (6/0) [12/7]
|   |   |   |   |   |   |   |   |   |   |   |   |   |   |   |   |   |   |   |   |   |   |   |   |   topic_48 >= 0
|   |   |   |   |   |   |   |   |   |   |   |   |   |   |   |   |   |   |   |   |   |   |   |   |   |   topic_38 < 0 : negative (6/0) [4/1]
|   |   |   |   |   |   |   |   |   |   |   |   |   |   |   |   |   |   |   |   |   |   |   |   |   |   topic_38 >= 0
|   |   |   |   |   |   |   |   |   |   |   |   |   |   |   |   |   |   |   |   |   |   |   |   |   |   |   topic_3 < 0
|   |   |   |   |   |   |   |   |   |   |   |   |   |   |   |   |   |   |   |   |   |   |   |   |   |   |   |   topic_38 < 0.18
|   |   |   |   |   |   |   |   |   |   |   |   |   |   |   |   |   |   |   |   |   |   |   |   |   |   |   |   |   topic_33 < 0.01
|   |   |   |   |   |   |   |   |   |   |   |   |   |   |   |   |   |   |   |   |   |   |   |   |   |   |   |   |   |   topic_27 < 0 : negative (74/32) [46/17]
|   |   |   |   |   |   |   |   |   |   |   |   |   |   |   |   |   |   |   |   |   |   |   |   |   |   |   |   |   |   topic_27 >= 0
|   |   |   |   |   |   |   |   |   |   |   |   |   |   |   |   |   |   |   |   |   |   |   |   |   |   |   |   |   |   |   topic_16 < 0.28
|   |   |   |   |   |   |   |   |   |   |   |   |   |   |   |   |   |   |   |   |   |   |   |   |   |   |   |   |   |   |   |   topic_4 < 0
|   |   |   |   |   |   |   |   |   |   |   |   |   |   |   |   |   |   |   |   |   |   |   |   |   |   |   |   |   |   |   |   |   topic_16 < 0
|   |   |   |   |   |   |   |   |   |   |   |   |   |   |   |   |   |   |   |   |   |   |   |   |   |   |   |   |   |   |   |   |   |   topic_32 < 0
|   |   |   |   |   |   |   |   |   |   |   |   |   |   |   |   |   |   |   |   |   |   |   |   |   |   |   |   |   |   |   |   |   |   |   topic_13 < 0
|   |   |   |   |   |   |   |   |   |   |   |   |   |   |   |   |   |   |   |   |   |   |   |   |   |   |   |   |   |   |   |   |   |   |   |   topic_28 < 0
|   |   |   |   |   |   |   |   |   |   |   |   |   |   |   |   |   |   |   |   |   |   |   |   |   |   |   |   |   |   |   |   |   |   |   |   |   topic_10 < 0
|   |   |   |   |   |   |   |   |   |   |   |   |   |   |   |   |   |   |   |   |   |   |   |   |   |   |   |   |   |   |   |   |   |   |   |   |   |   topic_33 < 0 : positive (7/2) [3/2]
|   |   |   |   |   |   |   |   |   |   |   |   |   |   |   |   |   |   |   |   |   |   |   |   |   |   |   |   |   |   |   |   |   |   |   |   |   |   topic_33 >= 0 : negative (2/0) [4/1]
|   |   |   |   |   |   |   |   |   |   |   |   |   |   |   |   |   |   |   |   |   |   |   |   |   |   |   |   |   |   |   |   |   |   |   |   |   topic_10 >= 0 : positive (3/0) [1/1]
|   |   |   |   |   |   |   |   |   |   |   |   |   |   |   |   |   |   |   |   |   |   |   |   |   |   |   |   |   |   |   |   |   |   |   |   topic_28 >= 0 : negative (2/0) [0/0]
|   |   |   |   |   |   |   |   |   |   |   |   |   |   |   |   |   |   |   |   |   |   |   |   |   |   |   |   |   |   |   |   |   |   |   topic_13 >= 0 : positive (3/0) [1/1]
|   |   |   |   |   |   |   |   |   |   |   |   |   |   |   |   |   |   |   |   |   |   |   |   |   |   |   |   |   |   |   |   |   |   topic_32 >= 0 : negative (6/1) [5/1]
|   |   |   |   |   |   |   |   |   |   |   |   |   |   |   |   |   |   |   |   |   |   |   |   |   |   |   |   |   |   |   |   |   topic_16 >= 0
|   |   |   |   |   |   |   |   |   |   |   |   |   |   |   |   |   |   |   |   |   |   |   |   |   |   |   |   |   |   |   |   |   |   topic_33 < 0 : positive (11/0) [7/3]
|   |   |   |   |   |   |   |   |   |   |   |   |   |   |   |   |   |   |   |   |   |   |   |   |   |   |   |   |   |   |   |   |   |   topic_33 >= 0
|   |   |   |   |   |   |   |   |   |   |   |   |   |   |   |   |   |   |   |   |   |   |   |   |   |   |   |   |   |   |   |   |   |   |   topic_27 < 0.08 : positive (18/4) [2/2]
|   |   |   |   |   |   |   |   |   |   |   |   |   |   |   |   |   |   |   |   |   |   |   |   |   |   |   |   |   |   |   |   |   |   |   topic_27 >= 0.08 : negative (2/0) [1/0]
|   |   |   |   |   |   |   |   |   |   |   |   |   |   |   |   |   |   |   |   |   |   |   |   |   |   |   |   |   |   |   |   topic_4 >= 0 : negative (16/6) [2/0]
|   |   |   |   |   |   |   |   |   |   |   |   |   |   |   |   |   |   |   |   |   |   |   |   |   |   |   |   |   |   |   topic_16 >= 0.28 : positive (5/0) [2/1]
|   |   |   |   |   |   |   |   |   |   |   |   |   |   |   |   |   |   |   |   |   |   |   |   |   |   |   |   |   topic_33 >= 0.01 : negative (4/0) [2/0]
|   |   |   |   |   |   |   |   |   |   |   |   |   |   |   |   |   |   |   |   |   |   |   |   |   |   |   |   topic_38 >= 0.18 : positive (5/0) [1/0]
|   |   |   |   |   |   |   |   |   |   |   |   |   |   |   |   |   |   |   |   |   |   |   |   |   |   |   topic_3 >= 0
|   |   |   |   |   |   |   |   |   |   |   |   |   |   |   |   |   |   |   |   |   |   |   |   |   |   |   |   topic_28 < 0
|   |   |   |   |   |   |   |   |   |   |   |   |   |   |   |   |   |   |   |   |   |   |   |   |   |   |   |   |   topic_42 < 0
|   |   |   |   |   |   |   |   |   |   |   |   |   |   |   |   |   |   |   |   |   |   |   |   |   |   |   |   |   |   topic_38 < 0.18
|   |   |   |   |   |   |   |   |   |   |   |   |   |   |   |   |   |   |   |   |   |   |   |   |   |   |   |   |   |   |   topic_38 < 0.02
|   |   |   |   |   |   |   |   |   |   |   |   |   |   |   |   |   |   |   |   |   |   |   |   |   |   |   |   |   |   |   |   topic_33 < 0
|   |   |   |   |   |   |   |   |   |   |   |   |   |   |   |   |   |   |   |   |   |   |   |   |   |   |   |   |   |   |   |   |   topic_30 < 0.2
|   |   |   |   |   |   |   |   |   |   |   |   |   |   |   |   |   |   |   |   |   |   |   |   |   |   |   |   |   |   |   |   |   |   topic_29 < 0
|   |   |   |   |   |   |   |   |   |   |   |   |   |   |   |   |   |   |   |   |   |   |   |   |   |   |   |   |   |   |   |   |   |   |   topic_4 < 0.1
|   |   |   |   |   |   |   |   |   |   |   |   |   |   |   |   |   |   |   |   |   |   |   |   |   |   |   |   |   |   |   |   |   |   |   |   topic_4 < 0.04
|   |   |   |   |   |   |   |   |   |   |   |   |   |   |   |   |   |   |   |   |   |   |   |   |   |   |   |   |   |   |   |   |   |   |   |   |   topic_13 < 0.76
|   |   |   |   |   |   |   |   |   |   |   |   |   |   |   |   |   |   |   |   |   |   |   |   |   |   |   |   |   |   |   |   |   |   |   |   |   |   topic_27 < 0.93
|   |   |   |   |   |   |   |   |   |   |   |   |   |   |   |   |   |   |   |   |   |   |   |   |   |   |   |   |   |   |   |   |   |   |   |   |   |   |   topic_33 < 0 : negative (4/0) [0/0]
|   |   |   |   |   |   |   |   |   |   |   |   |   |   |   |   |   |   |   |   |   |   |   |   |   |   |   |   |   |   |   |   |   |   |   |   |   |   |   topic_33 >= 0
|   |   |   |   |   |   |   |   |   |   |   |   |   |   |   |   |   |   |   |   |   |   |   |   |   |   |   |   |   |   |   |   |   |   |   |   |   |   |   |   topic_8 < 0.46
|   |   |   |   |   |   |   |   |   |   |   |   |   |   |   |   |   |   |   |   |   |   |   |   |   |   |   |   |   |   |   |   |   |   |   |   |   |   |   |   |   topic_3 < 0
|   |   |   |   |   |   |   |   |   |   |   |   |   |   |   |   |   |   |   |   |   |   |   |   |   |   |   |   |   |   |   |   |   |   |   |   |   |   |   |   |   |   topic_7 < 0
|   |   |   |   |   |   |   |   |   |   |   |   |   |   |   |   |   |   |   |   |   |   |   |   |   |   |   |   |   |   |   |   |   |   |   |   |   |   |   |   |   |   |   topic_48 < 0
|   |   |   |   |   |   |   |   |   |   |   |   |   |   |   |   |   |   |   |   |   |   |   |   |   |   |   |   |   |   |   |   |   |   |   |   |   |   |   |   |   |   |   |   topic_33 < 0
|   |   |   |   |   |   |   |   |   |   |   |   |   |   |   |   |   |   |   |   |   |   |   |   |   |   |   |   |   |   |   |   |   |   |   |   |   |   |   |   |   |   |   |   |   topic_38 < 0
|   |   |   |   |   |   |   |   |   |   |   |   |   |   |   |   |   |   |   |   |   |   |   |   |   |   |   |   |   |   |   |   |   |   |   |   |   |   |   |   |   |   |   |   |   |   topic_27 < 0
|   |   |   |   |   |   |   |   |   |   |   |   |   |   |   |   |   |   |   |   |   |   |   |   |   |   |   |   |   |   |   |   |   |   |   |   |   |   |   |   |   |   |   |   |   |   |   topic_26 < 0
|   |   |   |   |   |   |   |   |   |   |   |   |   |   |   |   |   |   |   |   |   |   |   |   |   |   |   |   |   |   |   |   |   |   |   |   |   |   |   |   |   |   |   |   |   |   |   |   topic_13 < 0 : positive (7/3) [2/0]
|   |   |   |   |   |   |   |   |   |   |   |   |   |   |   |   |   |   |   |   |   |   |   |   |   |   |   |   |   |   |   |   |   |   |   |   |   |   |   |   |   |   |   |   |   |   |   |   topic_13 >= 0 : negative (10/1) [10/5]
|   |   |   |   |   |   |   |   |   |   |   |   |   |   |   |   |   |   |   |   |   |   |   |   |   |   |   |   |   |   |   |   |   |   |   |   |   |   |   |   |   |   |   |   |   |   |   topic_26 >= 0
|   |   |   |   |   |   |   |   |   |   |   |   |   |   |   |   |   |   |   |   |   |   |   |   |   |   |   |   |   |   |   |   |   |   |   |   |   |   |   |   |   |   |   |   |   |   |   |   topic_13 < 0 : positive (4/0) [5/2]
|   |   |   |   |   |   |   |   |   |   |   |   |   |   |   |   |   |   |   |   |   |   |   |   |   |   |   |   |   |   |   |   |   |   |   |   |   |   |   |   |   |   |   |   |   |   |   |   topic_13 >= 0
|   |   |   |   |   |   |   |   |   |   |   |   |   |   |   |   |   |   |   |   |   |   |   |   |   |   |   |   |   |   |   |   |   |   |   |   |   |   |   |   |   |   |   |   |   |   |   |   |   topic_23 < 0 : positive (38/14) [11/2]
|   |   |   |   |   |   |   |   |   |   |   |   |   |   |   |   |   |   |   |   |   |   |   |   |   |   |   |   |   |   |   |   |   |   |   |   |   |   |   |   |   |   |   |   |   |   |   |   |   topic_23 >= 0
|   |   |   |   |   |   |   |   |   |   |   |   |   |   |   |   |   |   |   |   |   |   |   |   |   |   |   |   |   |   |   |   |   |   |   |   |   |   |   |   |   |   |   |   |   |   |   |   |   |   topic_26 < 0
|   |   |   |   |   |   |   |   |   |   |   |   |   |   |   |   |   |   |   |   |   |   |   |   |   |   |   |   |   |   |   |   |   |   |   |   |   |   |   |   |   |   |   |   |   |   |   |   |   |   |   topic_13 < 0
|   |   |   |   |   |   |   |   |   |   |   |   |   |   |   |   |   |   |   |   |   |   |   |   |   |   |   |   |   |   |   |   |   |   |   |   |   |   |   |   |   |   |   |   |   |   |   |   |   |   |   |   topic_9 < 0 : negative (5/0) [3/1]
|   |   |   |   |   |   |   |   |   |   |   |   |   |   |   |   |   |   |   |   |   |   |   |   |   |   |   |   |   |   |   |   |   |   |   |   |   |   |   |   |   |   |   |   |   |   |   |   |   |   |   |   topic_9 >= 0 : positive (4/1) [1/0]
|   |   |   |   |   |   |   |   |   |   |   |   |   |   |   |   |   |   |   |   |   |   |   |   |   |   |   |   |   |   |   |   |   |   |   |   |   |   |   |   |   |   |   |   |   |   |   |   |   |   |   topic_13 >= 0 : negative (12/0) [3/0]
|   |   |   |   |   |   |   |   |   |   |   |   |   |   |   |   |   |   |   |   |   |   |   |   |   |   |   |   |   |   |   |   |   |   |   |   |   |   |   |   |   |   |   |   |   |   |   |   |   |   topic_26 >= 0
|   |   |   |   |   |   |   |   |   |   |   |   |   |   |   |   |   |   |   |   |   |   |   |   |   |   |   |   |   |   |   |   |   |   |   |   |   |   |   |   |   |   |   |   |   |   |   |   |   |   |   topic_26 < 0 : positive (6/0) [2/1]
|   |   |   |   |   |   |   |   |   |   |   |   |   |   |   |   |   |   |   |   |   |   |   |   |   |   |   |   |   |   |   |   |   |   |   |   |   |   |   |   |   |   |   |   |   |   |   |   |   |   |   topic_26 >= 0
|   |   |   |   |   |   |   |   |   |   |   |   |   |   |   |   |   |   |   |   |   |   |   |   |   |   |   |   |   |   |   |   |   |   |   |   |   |   |   |   |   |   |   |   |   |   |   |   |   |   |   |   topic_23 < 0.03 : negative (44/22) [20/9]
|   |   |   |   |   |   |   |   |   |   |   |   |   |   |   |   |   |   |   |   |   |   |   |   |   |   |   |   |   |   |   |   |   |   |   |   |   |   |   |   |   |   |   |   |   |   |   |   |   |   |   |   topic_23 >= 0.03 : positive (3/0) [2/1]
|   |   |   |   |   |   |   |   |   |   |   |   |   |   |   |   |   |   |   |   |   |   |   |   |   |   |   |   |   |   |   |   |   |   |   |   |   |   |   |   |   |   |   |   |   |   topic_27 >= 0 : negative (52/18) [27/11]
|   |   |   |   |   |   |   |   |   |   |   |   |   |   |   |   |   |   |   |   |   |   |   |   |   |   |   |   |   |   |   |   |   |   |   |   |   |   |   |   |   |   |   |   |   topic_38 >= 0 : positive (3/0) [2/1]
|   |   |   |   |   |   |   |   |   |   |   |   |   |   |   |   |   |   |   |   |   |   |   |   |   |   |   |   |   |   |   |   |   |   |   |   |   |   |   |   |   |   |   |   topic_33 >= 0 : negative (4/0) [6/4]
|   |   |   |   |   |   |   |   |   |   |   |   |   |   |   |   |   |   |   |   |   |   |   |   |   |   |   |   |   |   |   |   |   |   |   |   |   |   |   |   |   |   |   topic_48 >= 0
|   |   |   |   |   |   |   |   |   |   |   |   |   |   |   |   |   |   |   |   |   |   |   |   |   |   |   |   |   |   |   |   |   |   |   |   |   |   |   |   |   |   |   |   topic_16 < 0
|   |   |   |   |   |   |   |   |   |   |   |   |   |   |   |   |   |   |   |   |   |   |   |   |   |   |   |   |   |   |   |   |   |   |   |   |   |   |   |   |   |   |   |   |   topic_38 < 0 : positive (9/0) [8/4]
|   |   |   |   |   |   |   |   |   |   |   |   |   |   |   |   |   |   |   |   |   |   |   |   |   |   |   |   |   |   |   |   |   |   |   |   |   |   |   |   |   |   |   |   |   topic_38 >= 0
|   |   |   |   |   |   |   |   |   |   |   |   |   |   |   |   |   |   |   |   |   |   |   |   |   |   |   |   |   |   |   |   |   |   |   |   |   |   |   |   |   |   |   |   |   |   topic_13 < 0 : negative (5/2) [3/1]
|   |   |   |   |   |   |   |   |   |   |   |   |   |   |   |   |   |   |   |   |   |   |   |   |   |   |   |   |   |   |   |   |   |   |   |   |   |   |   |   |   |   |   |   |   |   topic_13 >= 0 : positive (5/0) [0/0]
|   |   |   |   |   |   |   |   |   |   |   |   |   |   |   |   |   |   |   |   |   |   |   |   |   |   |   |   |   |   |   |   |   |   |   |   |   |   |   |   |   |   |   |   topic_16 >= 0 : negative (8/3) [4/0]
|   |   |   |   |   |   |   |   |   |   |   |   |   |   |   |   |   |   |   |   |   |   |   |   |   |   |   |   |   |   |   |   |   |   |   |   |   |   |   |   |   |   topic_7 >= 0
|   |   |   |   |   |   |   |   |   |   |   |   |   |   |   |   |   |   |   |   |   |   |   |   |   |   |   |   |   |   |   |   |   |   |   |   |   |   |   |   |   |   |   topic_27 < 0.06 : negative (19/2) [10/2]
|   |   |   |   |   |   |   |   |   |   |   |   |   |   |   |   |   |   |   |   |   |   |   |   |   |   |   |   |   |   |   |   |   |   |   |   |   |   |   |   |   |   |   topic_27 >= 0.06
|   |   |   |   |   |   |   |   |   |   |   |   |   |   |   |   |   |   |   |   |   |   |   |   |   |   |   |   |   |   |   |   |   |   |   |   |   |   |   |   |   |   |   |   topic_9 < 0 : negative (3/0) [7/2]
|   |   |   |   |   |   |   |   |   |   |   |   |   |   |   |   |   |   |   |   |   |   |   |   |   |   |   |   |   |   |   |   |   |   |   |   |   |   |   |   |   |   |   |   topic_9 >= 0 : positive (4/0) [2/0]
|   |   |   |   |   |   |   |   |   |   |   |   |   |   |   |   |   |   |   |   |   |   |   |   |   |   |   |   |   |   |   |   |   |   |   |   |   |   |   |   |   topic_3 >= 0 : positive (7/1) [4/1]
|   |   |   |   |   |   |   |   |   |   |   |   |   |   |   |   |   |   |   |   |   |   |   |   |   |   |   |   |   |   |   |   |   |   |   |   |   |   |   |   topic_8 >= 0.46 : negative (4/0) [3/1]
|   |   |   |   |   |   |   |   |   |   |   |   |   |   |   |   |   |   |   |   |   |   |   |   |   |   |   |   |   |   |   |   |   |   |   |   |   |   topic_27 >= 0.93 : negative (5/0) [0/0]
|   |   |   |   |   |   |   |   |   |   |   |   |   |   |   |   |   |   |   |   |   |   |   |   |   |   |   |   |   |   |   |   |   |   |   |   |   topic_13 >= 0.76 : negative (7/0) [0/0]
|   |   |   |   |   |   |   |   |   |   |   |   |   |   |   |   |   |   |   |   |   |   |   |   |   |   |   |   |   |   |   |   |   |   |   |   topic_4 >= 0.04 : positive (11/2) [3/1]
|   |   |   |   |   |   |   |   |   |   |   |   |   |   |   |   |   |   |   |   |   |   |   |   |   |   |   |   |   |   |   |   |   |   |   topic_4 >= 0.1
|   |   |   |   |   |   |   |   |   |   |   |   |   |   |   |   |   |   |   |   |   |   |   |   |   |   |   |   |   |   |   |   |   |   |   |   topic_4 < 0.31 : negative (11/0) [6/4]
|   |   |   |   |   |   |   |   |   |   |   |   |   |   |   |   |   |   |   |   |   |   |   |   |   |   |   |   |   |   |   |   |   |   |   |   topic_4 >= 0.31
|   |   |   |   |   |   |   |   |   |   |   |   |   |   |   |   |   |   |   |   |   |   |   |   |   |   |   |   |   |   |   |   |   |   |   |   |   topic_27 < 0 : negative (3/0) [0/0]
|   |   |   |   |   |   |   |   |   |   |   |   |   |   |   |   |   |   |   |   |   |   |   |   |   |   |   |   |   |   |   |   |   |   |   |   |   topic_27 >= 0 : positive (2/0) [1/0]
|   |   |   |   |   |   |   |   |   |   |   |   |   |   |   |   |   |   |   |   |   |   |   |   |   |   |   |   |   |   |   |   |   |   topic_29 >= 0
|   |   |   |   |   |   |   |   |   |   |   |   |   |   |   |   |   |   |   |   |   |   |   |   |   |   |   |   |   |   |   |   |   |   |   topic_27 < 0.65
|   |   |   |   |   |   |   |   |   |   |   |   |   |   |   |   |   |   |   |   |   |   |   |   |   |   |   |   |   |   |   |   |   |   |   |   topic_27 < 0.29
|   |   |   |   |   |   |   |   |   |   |   |   |   |   |   |   |   |   |   |   |   |   |   |   |   |   |   |   |   |   |   |   |   |   |   |   |   topic_27 < 0.13
|   |   |   |   |   |   |   |   |   |   |   |   |   |   |   |   |   |   |   |   |   |   |   |   |   |   |   |   |   |   |   |   |   |   |   |   |   |   topic_27 < 0.01
|   |   |   |   |   |   |   |   |   |   |   |   |   |   |   |   |   |   |   |   |   |   |   |   |   |   |   |   |   |   |   |   |   |   |   |   |   |   |   topic_4 < 0 : negative (26/4) [13/6]
|   |   |   |   |   |   |   |   |   |   |   |   |   |   |   |   |   |   |   |   |   |   |   |   |   |   |   |   |   |   |   |   |   |   |   |   |   |   |   topic_4 >= 0
|   |   |   |   |   |   |   |   |   |   |   |   |   |   |   |   |   |   |   |   |   |   |   |   |   |   |   |   |   |   |   |   |   |   |   |   |   |   |   |   topic_8 < 0.04 : positive (14/6) [11/3]
|   |   |   |   |   |   |   |   |   |   |   |   |   |   |   |   |   |   |   |   |   |   |   |   |   |   |   |   |   |   |   |   |   |   |   |   |   |   |   |   topic_8 >= 0.04 : negative (3/0) [2/1]
